1247 100
i30 -0.15689602 0.19579357 -0.1073699 -0.46152064 0.3913726 -0.091067776 -0.22933993 0.13175626 0.2450753 -0.20380868 0.16169488 -0.4615113 0.44748038 0.40631554 0.31009606 -0.5272093 -0.46821418 -0.7513995 -0.0614914 -0.32027012 -0.016849836 0.018539743 0.6876801 -0.018510396 0.36872256 -0.26473942 0.51626897 0.39159173 0.6300777 0.2452324 0.5699814 -0.27524328 -0.20459884 -0.059878346 0.4044979 0.4609288 -0.0883791 -0.23720992 -0.02872333 -0.41176012 -0.29146433 -0.41392103 -0.49794617 -0.082304046 0.388055 0.27427858 -0.27119377 0.405157 0.14840549 -0.74197096 0.4849087 0.4124752 -0.20521466 -0.78535396 0.4439575 -0.26508966 -0.35485902 -0.24351613 -0.092380136 0.031249091 0.032080337 0.15862484 0.112163246 -0.34092808 -0.5739234 -0.086074755 0.6010788 0.7647872 -0.3660931 0.28280747 -0.22544968 0.099627085 0.11357863 0.055914473 0.2958789 -0.21036993 -0.26217663 0.16115858 0.21569991 -0.46091154 0.19331563 0.1829506 0.16164804 -0.3114076 -0.1109309 -0.37001315 0.16984062 0.5128537 -0.24168034 -0.71919924 0.6227007 0.053685088 -0.33260217 -0.013756155 0.72559845 -0.13762456 0.19299823 -0.30907908 -0.78989273 -0.11644519
i118 -0.94401777 0.2796717 -0.05508969 0.065573014 0.6114323 0.059306618 -0.37941918 0.24340583 0.037368953 -0.5107659 0.16810142 -0.499672 -0.12929954 -0.13863565 0.4552766 -0.0021433663 -0.6207426 -0.47527024 -0.5249712 0.28106824 0.12535062 -0.104957625 -0.030954886 -0.13196765 -0.09460449 -0.096615486 -0.12927517 -0.0041117743 0.812177 -0.02563921 0.3358948 0.016189467 -0.39985383 -0.18047264 0.64501065 0.7511629 -0.033636168 0.19621539 0.124881804 -0.23149435 -0.06528167 -0.81275463 0.12787892 -0.1733795 0.15316674 0.22023185 -0.060109448 0.05614903 -0.788148 -0.13149771 0.19588637 -0.23217882 0.5223702 -0.2686922 0.29853475 -0.61742187 0.11438227 0.22002967 -0.6496461 0.30488062 0.4462261 0.5105517 0.22097325 -0.24927111 -0.39955536 0.40451935 0.6842908 -0.15256251 0.013934829 0.09045326 -0.6489078 -0.035523277 -0.089932345 -0.35135016 0.38245288 0.090263195 -0.22201607 0.01570666 -0.052604605 0.26126572 -0.114135124 -0.39906475 0.026991457 0.39740002 0.1264615 0.28213897 0.22030067 0.07223298 -0.6709078 -0.05750714 0.6022196 -0.06307045 -0.050792053 -0.36227736 0.65152746 0.03316143 0.28398928 -0.334613 -0.69193715 -0.15340735
i27 -0.6782767 -0.012048987 -0.07236801 0.04867323 0.70269936 -0.48556203 -0.13158393 0.13853304 -0.08466876 -0.17918879 -0.011360121 -0.3847456 -0.06385039 -0.22582655 0.48117077 -0.2482303 -0.4659753 -0.59296256 -0.40979034 0.38784695 0.03100078 -0.12371931 -0.08471777 -0.48410565 0.16167426 -0.07477013 -0.12905854 -0.078539 0.8787629 -0.23347649 0.82208604 0.35676178 -0.19604632 -0.37134814 0.42967847 0.7897106 -0.69953775 -0.20642062 -0.2911005 -0.3729883 -0.053999957 -0.91053385 -0.05435062 -0.17300461 0.46164936 0.28893462 0.09344666 0.81230175 -0.8929458 -0.3159383 0.15743843 -0.10434096 0.3007955 -0.46368587 0.57329756 -0.59585935 0.13526338 0.15059578 -0.16944204 0.3688658 0.4083608 0.41852868 0.5492884 -0.41013688 -0.40996814 0.41154483 0.55738395 0.43743575 -0.21893509 0.23273483 -0.9624806 -0.103933826 0.053255238 -0.17286707 0.43347195 0.14560947 -0.3528844 0.15723638 -0.3141044 0.31219205 0.21753596 -0.13777542 -0.08043822 0.35046875 0.11214151 -0.039184183 0.31655946 -0.08558485 -0.9218869 0.09688572 -0.02501875 -0.07347122 -0.13055763 0.043660894 0.29199216 0.4729685 0.32127082 -0.28033778 -0.39773452 -0.19518389
i70 -0.48334837 -0.2810712 -0.37576455 -0.3124618 0.64035344 -0.04163342 -0.5786728 0.20185265 0.17914195 -0.44832563 0.34873047 -0.28626323 0.6291988 0.6565376 1.0086498 -1.1093707 -0.32755604 0.54535997 -0.30138525 0.44545916 0.17145705 0.690902 0.53286266 -0.023804836 0.018921712 -0.46784502 0.12654158 -0.11177238 -0.06876994 0.031702712 0.6210357 0.39136675 -0.22692168 -0.7600446 0.626687 0.14908451 -0.33194938 -0.64806515 0.076579474 -0.53347576 0.029656293 -1.3156464 -0.3614642 -0.54524225 -0.091537274 0.5928823 -0.15052053 0.40838158 0.09588216 -0.031648804 0.70971507 0.8265648 0.010181203 -0.37185058 0.34357345 -0.14247043 -0.17059515 0.70060486 0.79101354 0.24367659 0.07623953 -0.0009199744 -0.28198236 0.10236429 0.15286215 -0.33357215 -0.40704462 0.06790054 -0.53118753 -0.5833477 -0.848331 0.57109314 0.47243044 -0.12654668 0.48137125 0.08724051 -0.13119805 -0.33663088 -0.59027034 -0.0073894886 0.036549512 -0.7012766 0.17797998 0.25141144 -0.012513152 -0.07850766 -0.16665846 0.2030269 -0.17169614 0.11459916 -0.016369458 1.3762965 0.079698555 0.39222786 0.69821393 0.5075436 0.17255913 0.22905245 -0.106616795 0.17690338
i28 -0.81578976 0.60534024 0.01855857 0.16993615 0.6196305 -0.10769551 -0.62309575 0.29124513 -0.103098445 -0.5281937 0.1933131 -0.3441548 0.16161345 0.006299758 0.56910425 -0.35720992 -1.2879895 0.39400917 -0.40402985 -0.024980389 0.013263745 0.4847521 -0.6187016 -0.08996849 -0.5976286 -0.045552116 0.25910646 0.23462968 0.44928506 0.048699763 0.38537076 -0.16837333 -0.22410208 0.6271823 0.46395305 0.7062817 0.4763475 0.07308733 0.40108964 -0.09146411 -0.049656477 -0.9082621 -0.6153535 -0.044677336 0.07549654 -0.3450997 0.32483 -0.023440963 -0.3342004 -0.20473726 0.11984418 -0.1376883 0.8249886 -0.51166695 0.40378347 -0.712142 0.08192908 0.0035306688 0.05451965 0.250764 0.5375753 0.5225951 -0.042720217 -0.051202804 -0.14911076 0.20203696 0.5307933 -0.24250567 0.4068038 0.15505576 -0.23821507 0.31549752 -0.16478893 -0.20081614 0.42494175 -0.40267566 -0.18253651 -0.42956865 -0.18907048 -0.31950757 -0.45003518 -0.0119311055 -0.071034595 -0.24301533 -0.15187673 -0.14747177 0.2758928 0.08724409 -0.40145108 0.12286227 0.80938506 0.46989402 -0.4400994 -0.3605908 0.4205607 0.014827991 -0.14855015 -0.27587897 -0.69228804 -0.18987618
i199 -0.3280422 0.49324962 0.62467027 0.35446787 0.15609607 -0.47502837 -0.0041014142 0.06644064 -0.03854513 0.42962992 0.08779982 -0.25781894 -0.03807463 0.055544976 0.2453943 -0.5261515 -0.094662376 0.83896726 -0.05397647 0.058873672 0.56214994 0.355354 0.007585589 0.29591292 0.5796347 -0.33037087 0.23517548 -0.4677238 -0.18355761 -0.11390717 0.31771234 -0.39820912 0.3078972 -0.1887562 0.32591924 0.000924626 -0.23283786 -0.01355913 -0.0009796898 -0.18879527 -0.2708708 -0.77485883 -0.44295856 0.17647132 0.5616988 0.03248077 0.35073373 0.2609464 0.11864569 -0.23509163 0.23005244 -0.33503368 0.28698188 0.17919442 0.017885908 -0.82489234 -0.7383013 0.20926736 -0.015451411 -0.16471647 0.32026997 0.43664607 0.27418432 -0.11597814 0.08478043 0.29679114 0.2393396 -0.16636072 -0.56643987 -0.46715057 -0.7918864 -0.04197579 0.3461986 -0.119316675 0.2842556 -0.26731712 -0.5798775 -0.21647799 -0.103446126 0.08821625 0.15457712 -0.64090735 0.25262025 0.090339236 0.11992893 0.07585775 0.12459874 0.36389112 -0.1257046 -0.22601074 0.18522808 0.2651539 -0.52482146 -1.0783129 -0.08635593 -0.54779756 0.6191501 0.13730313 0.30161783 0.41446665
i146 -1.0088506 -0.25100848 -0.029876241 -0.80723876 1.1029823 -0.54366386 -0.18335299 -0.06994294 -0.4817404 -0.69134915 -0.3147459 -0.5170596 0.35262582 0.050775953 -0.10419477 -0.86487484 -0.47725233 0.41458955 -0.17762777 0.53549844 -0.26800856 0.19609468 0.09574964 -0.11585419 0.3823524 -0.436542 -0.024325576 0.22266378 0.017199025 0.077752955 -0.09593351 0.39868128 0.37137166 0.03257623 0.7159509 0.48901284 -0.09089156 -0.35393727 0.1443356 -0.65471596 -0.47931305 -0.71931994 0.010646488 -0.09999163 -0.43249482 0.38906094 0.06074988 0.39237958 0.19957633 -0.16488625 0.4630891 0.13734159 0.72144127 -0.15660872 0.26301232 -0.11605751 -0.044100568 -0.3944764 -0.18942273 1.0316802 -0.5385871 0.34361768 -0.22603291 0.21873248 -0.07578522 0.31567582 -0.23184897 0.31459367 -0.5106523 -0.048867635 -0.30842966 -0.13226017 0.8407248 -0.37510508 -0.5041836 -0.48880154 -0.30041996 -0.25868687 0.32000747 0.025516175 0.34862912 -0.041346382 -0.44475514 -0.30628508 -0.24842545 -0.08899865 -0.074170984 -0.3084931 -0.11707331 -0.42310485 0.32636517 0.434175 -0.46479493 -0.08762583 0.36659336 -0.268227 0.7773134 0.25116268 -0.06414799 -0.22920425
i82 -0.8748648 -0.30812716 -0.11441428 -0.3929023 0.54284525 -0.859713 -0.029917678 -0.2917409 0.20658006 -0.44277042 -1.0687541 -0.052657083 0.29770702 -0.6404466 0.58747864 -0.62038046 -0.75842255 -0.22450618 -0.42419714 0.99547404 0.3868629 0.35869387 -0.12627667 -0.07086017 0.36247438 -0.47019464 0.64703345 0.28375694 -0.30520862 0.019481897 0.41826132 -0.5500818 -0.38477933 0.18909557 0.42645082 0.04956867 -0.69549453 -0.1929955 -0.5080114 -0.7989427 -0.078404404 -0.5980948 -0.29352075 -0.38549742 0.5122471 0.4661971 -0.030381372 -0.14366522 0.04133655 -0.7488652 0.32657456 -0.4220222 0.40313256 -0.55807215 0.058830716 -0.5105461 -0.78167164 0.28457803 -0.40018892 0.23769166 -0.53581864 0.09641772 0.5432704 0.48713836 -0.47291136 0.29670647 -0.1408235 -0.115555525 -0.4596458 -0.44431084 0.17905995 -0.09736497 0.46264946 -0.2365402 -0.26924893 -0.58725363 -0.73406255 -0.18935964 0.57535887 0.08010015 -0.032306947 -0.14870352 -0.08719364 -0.7499205 -0.0017591858 -0.36774123 -0.0149638485 0.06428088 -0.91852957 -0.11312117 0.24700743 0.5646894 -0.050545488 -0.3036756 0.40647888 0.3270204 0.19435741 -0.121539116 0.14768599 -0.5657427
i7 -0.75122184 0.18008535 0.28890663 -0.886978 0.29912555 -0.17814568 -0.42296275 -0.41527554 0.10880219 0.03296691 0.15950222 -0.5807989 -0.027264366 -0.024448346 -0.2447299 -0.6012273 -0.42497924 0.5638309 -0.55003655 -0.13833459 0.60680306 0.032259744 -0.07089827 -0.39286765 0.515989 -0.08686926 0.27091387 0.4945399 -0.6801233 0.19930282 0.086596586 0.031041287 0.7345912 -0.2537624 0.13586436 -0.21623342 0.1411318 0.18187177 -0.5412595 -0.4817484 0.71023786 -1.1266245 -0.3767638 -0.35358617 0.16446291 0.5192477 0.22071476 1.1527113 -0.591245 -0.1137198 0.19745503 0.29596022 0.41375887 0.09473645 0.020951796 -0.7574362 -0.6871556 0.18275695 0.13043539 -0.010854408 -0.19463217 0.25582585 -0.26630256 -0.25868565 0.05909292 0.45385015 0.38091496 0.79794794 -0.19999224 0.2322401 -0.4631098 -0.36099684 0.18494415 -0.13976415 0.4219052 -0.34724182 0.107524686 -0.84215826 -0.25352865 0.040705573 0.09030968 -0.75125295 -0.47034743 -0.13948026 -0.6176558 -0.47613233 0.74482775 0.537827 -0.43687847 -0.6146712 0.15063852 1.0794108 -0.24592277 -0.57403016 0.71374744 0.13629091 0.38978076 0.23099265 0.1212085 0.10381965
i66 -0.46796465 0.57835853 0.6391052 -0.045342263 0.78323215 -0.31989336 0.22367516 -0.20213814 0.26718518 0.3000806 -0.104776606 -0.46338132 0.31058308 0.14852346 0.18332814 -0.67009264 -0.34049946 0.8355712 0.18707712 0.18673284 0.32033205 0.5430155 0.22610065 0.5102252 0.35708168 0.19055529 0.2688381 -0.2291107 -0.36815506 0.24499786 0.107076176 -0.5029408 0.11095566 0.13176681 0.5218463 -0.22735997 -0.25492352 -0.15067057 -0.2598036 -0.39333162 -0.13574924 -0.57822424 -0.39742875 0.28806463 0.34720072 0.32809734 0.39699897 0.37243474 0.19844545 0.08609308 0.33791035 -0.6687288 0.4331887 0.17509922 0.032032166 -0.58940274 -0.80659896 0.6578254 -0.026631813 -0.14021693 0.12594385 0.5745355 0.38999403 -0.3267922 0.39624307 0.5785865 0.10353857 0.08501808 -0.4040918 -0.059292126 -0.7759744 -0.0849461 0.3717318 -0.39618254 0.124172986 -0.19157203 -0.47318342 -0.2934031 -0.11636239 -0.24168018 0.11645487 -0.67339903 0.5208233 -0.030348904 0.15620399 0.118205965 -0.19796912 0.523165 -0.12484526 -0.18471462 0.12236129 0.46790093 -0.50409085 -0.93997127 0.38539597 -0.5633668 0.2978559 0.034165572 0.50180775 0.27974734
i18 -0.9823438 0.32708424 0.025994593 0.008207502 0.014531475 0.4826752 -0.55577916 -0.058759365 0.07688066 0.06225714 -0.32121167 -0.0019788924 0.51227933 0.11255784 0.35136887 -0.7106619 -0.9223917 0.5110615 -0.35063764 0.03556435 -0.123406366 0.05802558 -0.13268201 0.092989445 -0.41404933 -0.39679918 0.44712183 0.27230924 0.3170343 -0.09963096 0.2882763 -0.049058847 0.27278513 0.1363753 0.011207825 1.087322 0.17973123 0.29809964 0.19454227 -0.2386908 0.121518806 -0.5904395 -0.33775222 -0.1490856 0.24126816 0.0010093518 -0.034577694 0.09335792 -0.45728928 -0.03039915 0.50157404 -0.18141925 0.853487 -0.7610067 0.73212636 -0.33741382 0.28209108 -0.027842168 0.45928332 -0.067709945 0.087281585 0.8827862 0.27249542 0.10172666 0.37155122 0.76496303 0.10909089 0.4676972 -0.41452783 -0.13771264 -0.33246368 -0.23346893 0.28789458 -0.63024056 0.6466255 -0.4160789 -0.49926895 -0.08765754 -0.2049314 -0.25270444 -0.22682953 -0.15369564 -0.043250147 -0.510713 -0.34790677 0.06065738 0.11157021 0.24622047 -0.040376283 0.41630122 1.140194 0.49993294 -0.026637923 -0.22128132 0.48758325 0.013500978 0.08549531 -0.24084067 -0.47930375 0.1832056
i19 -1.0643492 -0.10295855 0.73982024 -0.23163727 0.38828552 -0.27181858 -0.5642739 -0.009812589 0.9278999 -0.6673027 -0.16346113 -0.8871871 0.3510668 -0.21345839 0.7647977 -1.3452498 -0.630663 -0.41055226 -0.60405993 -0.10250898 0.20137392 0.455562 -0.031567097 0.19604672 1.1679276 -0.31701103 1.2118822 0.24109949 0.15821342 0.052299954 0.99151546 0.29191738 0.25624186 0.38654417 0.36696666 0.08800908 0.11726431 0.36780334 0.22367729 -0.62306535 0.4968001 -1.0310557 -0.28489536 -0.2495836 0.9593426 0.73271054 0.14685118 0.109942734 -0.19638135 -0.7584798 -0.15910554 -0.16788666 0.72683084 -0.5239681 0.5753423 -0.46434188 0.07224746 -0.3464966 -0.14255458 -0.18564728 -0.13831525 0.77998585 -0.1504407 -0.16882518 0.118422024 -0.0046662865 0.26081133 0.50970626 -0.88377756 0.03330633 0.030687397 0.010838126 -0.1947955 -0.75274587 0.12879674 -0.1516353 0.06609123 -0.16998067 -0.36745092 -0.5968791 0.23795651 -0.809648 -0.4001148 0.38478532 -0.21696603 0.24498723 -0.5817209 0.6408484 -1.0324078 0.47998405 -0.018979957 0.39048356 -0.8535441 -0.097635135 -0.5088014 0.12705474 -0.10317499 -0.8738397 -0.11963418 0.103476465
i24 -0.49209124 0.1451731 -0.14521877 -0.15805298 0.57462555 -0.12403274 -0.34397173 0.20112349 0.09286146 -0.25606668 0.24509093 -0.26688892 0.063663095 0.0040339003 0.52126634 -0.049184598 -0.45973703 -0.87622255 -0.24463968 0.37678337 0.11205395 -0.30104715 0.06065894 -0.64293826 0.07181572 -0.12539469 0.21286586 0.34118998 0.7917248 -0.003929836 0.8812478 0.19432348 -0.41141075 -0.2132651 0.6079087 0.6797561 -0.3976547 -0.43814132 -0.26177597 -0.34363058 -0.1127361 -0.9846923 -0.06847128 -0.035532195 0.3883038 0.21105762 -0.11906741 0.5056325 -0.5539539 -0.69231427 0.39702404 0.185824 0.104667686 -0.7269864 0.4603659 -0.5022827 0.0008226333 0.101768635 -0.36310947 0.32872108 0.46173277 0.47890943 0.5418693 -0.50060487 -0.564733 0.11729996 0.66332006 0.48606798 -0.33893588 0.38301483 -0.6257596 -0.05409187 -0.000510344 -0.09543736 0.42553744 -0.11419597 -0.31412783 0.10764415 0.015481347 0.17111203 -0.00634811 -0.17002244 -0.031670988 0.18859245 0.16217053 0.106152415 0.45441312 0.030817982 -0.69823146 -0.31877244 0.20113187 -0.25943303 -0.20322253 -0.041225094 0.5141823 0.0009867065 0.37884453 -0.33392176 -0.81138474 -0.11786003
i40 -0.30262974 -0.0968271 -0.12651865 -0.5121302 0.8126366 -0.031084266 0.12091774 -0.33075243 0.0662211 -0.080335364 -0.1513098 -0.4160805 0.4477643 0.5346126 -0.064069815 -0.6625432 -0.63149685 -0.08234123 0.011383567 0.19431661 -0.24766335 0.09519541 0.40318215 -0.18317708 -0.11399446 -0.46757403 0.23165028 0.1506552 -0.17867948 0.45526415 0.5992673 -0.24126577 0.35995957 0.08417328 1.4572368 0.018211566 -0.16381358 -0.16079578 0.16256493 -0.5297929 0.1270562 -0.48716593 -0.15820946 -0.15386717 0.85525745 -0.13771819 -0.2792159 0.56202537 0.26551983 -0.5816555 0.059469648 0.41900125 -0.20449823 -0.46749657 0.39484346 -0.88877153 -0.91659975 -0.15894346 0.25826916 0.22535291 -0.24975984 -0.33878022 0.27685913 -0.5606356 -0.103450656 0.020453589 0.6899692 0.8258394 0.16210009 -0.21371779 -0.29288504 0.50427 0.11547193 -0.3549659 0.3213296 -0.054987315 -0.7638457 0.32070777 0.24914685 -0.64961135 0.4128671 0.4024394 0.61687636 -0.027342513 -0.34506008 -0.30858797 0.3031712 0.9385704 -0.14157692 -0.47754505 0.9605205 0.70156175 -0.13951617 -0.20340247 0.556769 0.25564197 -0.14426672 0.09957614 -0.4389652 0.187573
i3 -0.8638761 0.5180247 -0.17185418 0.105919085 0.58222014 -0.0367479 -0.31868225 0.22970894 -0.012804202 -0.56543463 0.2097908 -0.5700627 0.12559171 -0.18079259 0.5021916 0.0016682568 -0.8481546 0.047374185 -0.5064029 0.18233956 0.15290003 0.35299 -0.38881397 -0.15622829 -0.43602157 0.0742961 0.21385857 -0.035378926 0.34419656 -0.10863193 0.2893189 -0.22398508 -0.25759923 0.2246949 0.4022031 0.6590378 0.1563305 0.15013894 0.415674 -0.14820981 -0.25019333 -0.8066117 -0.4602024 0.096074656 -0.060085565 -0.32532626 0.278921 -0.1337407 -0.53746307 -0.16793276 0.14342341 -0.36678737 0.8800551 -0.36766732 0.3572333 -0.9229731 0.13805363 -0.10240456 -0.40413025 0.46023545 0.4384602 0.7924858 0.10066912 -0.24280843 -0.2887437 0.0715691 0.61420137 -0.1460375 0.25384977 0.07465835 -0.6778872 0.38637644 -0.44298586 -0.16539824 0.09240621 -0.08736505 -0.08313135 -0.46990386 -0.00055047503 -0.067747235 -0.2670073 -0.37714145 0.042198766 0.17032324 0.097267866 0.12850696 0.27773663 0.24202591 -0.5902083 0.040818732 0.7401964 0.26720276 -0.2804363 -0.34801388 0.44914958 0.0728594 0.03758171 -0.25551996 -0.64571553 -0.18746445
i180 -0.3696244 -0.21019559 -0.13352771 0.28628144 -0.18786688 -0.48827657 0.16135599 0.10310189 -0.29813454 -0.27336466 -0.31220514 -0.30928582 0.25162667 -0.41393155 0.12821887 -1.2071687 -1.0985161 0.28527525 0.39429465 -0.17354581 0.31469184 0.6177701 -0.11472796 -0.021473797 0.37874582 0.5491075 0.48463085 0.49698347 -0.45455325 0.061045907 0.33374003 -0.26826864 0.14981554 -0.13751064 0.42788863 -0.18261492 -0.19495344 -0.040275626 0.12565452 -0.6078918 0.76047355 -1.28572 -0.5907684 -0.22457343 0.016225046 0.019465687 -0.23410022 0.39374128 -1.0027485 -0.6228497 0.4405279 0.11536519 -0.22412398 -0.48868555 1.2947787 -0.72408926 -1.0061501 -0.10756625 0.8818972 0.06038209 0.18830529 0.3735106 -0.21983966 0.055272188 -0.31219587 0.17185842 0.64940476 0.9776745 -0.004422226 -0.67670375 -0.7517582 0.4878856 0.59645003 -0.33753544 0.52047 -0.068815745 -0.6376011 -1.116169 -0.5576133 -0.21728325 -0.073242165 -0.11566419 -0.101029284 -0.056040615 -0.31674007 -0.2542281 -0.30736113 0.27042675 -0.302578 -0.19436584 -0.4616081 0.56061333 -0.4607818 0.65876544 0.52017426 0.39912993 0.60955054 -0.097646564 0.07545054 0.01938044
i85 -0.43627986 -0.007709321 0.06976247 -0.35437456 0.20464827 0.119359374 -0.42358202 0.25878713 0.3119181 0.1691926 0.022950033 -0.31198773 0.3784136 0.4519139 0.45886904 -0.32079726 -0.17436741 -0.78222317 0.14524747 -0.17541821 -0.07504499 -0.15999594 0.37727776 -0.14345993 0.15233283 -0.6350517 0.628984 0.37291595 0.6467472 -0.072376795 0.7769687 -0.04985954 -0.2639364 -0.17408738 0.43790868 0.56617993 -0.35920444 -0.5154503 0.015901562 -0.27842677 -0.3202601 -0.58195436 -0.21179892 -0.001329877 0.24945338 0.0014442279 -0.11386761 0.22689599 0.16975722 -0.87934893 0.6357459 0.34400433 -0.09341722 -0.5474282 0.48346967 -0.21282035 -0.20788313 -0.2848595 0.16873397 0.32167843 0.18097955 0.025503017 0.4451523 -0.47050092 -0.3391144 0.4426502 0.29648742 0.98922247 -0.42667192 0.16589929 -0.34915483 -0.0052372823 0.33243722 -0.21157975 0.28007805 -0.36700913 -0.18550204 0.109757684 0.29563236 -0.18297869 0.22696283 0.12532885 0.18132854 -0.52865505 -0.01615726 -0.103696965 -0.010435876 0.34035262 -0.3831259 -0.63666856 0.55875224 -0.015050929 -0.46605107 -0.059621546 0.4142218 -0.054168582 0.2122285 -0.2603037 -0.707753 -0.13212012
i121 -0.73762 0.028902847 -0.2004006 -0.1690202 0.97484726 -0.31963584 -0.13266365 0.0722208 -0.08135349 -0.2827833 -0.013793866 -0.18118046 0.012637017 0.13264456 0.4093803 -0.5357562 -0.51712346 -0.5162947 -0.49542975 0.74678874 -0.30312356 0.03495948 -0.11871588 -0.62887686 0.16227491 -0.12326888 0.2837452 0.034241326 0.8654806 0.0047605634 0.82286143 0.30770653 0.21963267 -0.46669987 0.40012613 0.8221078 -0.73666304 -0.33650512 -0.29270908 -0.41355217 -0.019004196 -0.83762187 -0.1618002 -0.27703822 0.47319943 0.1603971 0.34444886 0.82776004 -1.1013812 -0.16089706 0.18145151 -0.23230189 0.054728687 -0.5698672 0.5488454 -0.5884826 0.2136884 0.28423062 -0.19463222 0.39489567 0.36311102 0.41014788 0.34388095 -0.54409814 -0.4232453 0.4211624 0.8185577 0.07956237 -0.35406503 0.17667608 -0.9022263 -0.2676162 0.33497176 0.058686707 0.7412184 0.027486958 -0.34393212 0.025492758 -0.43335006 0.41972587 0.39873868 -0.22009492 -0.25902414 0.19652931 0.20909841 0.12938501 0.26287493 -0.2655199 -0.6165062 -0.15700163 0.040722433 0.101405255 -0.030874098 -0.22398204 0.566894 0.34552917 0.38271004 -0.4109037 -0.2789775 -0.1428077
i21 -1.1706071 0.02394773 0.27305323 -0.1442937 0.3302185 -0.46182084 -0.88947666 0.33259228 0.5574196 -0.7037741 0.11413879 -0.41217646 -0.09583329 0.3538504 -0.20401569 -1.0635948 -0.48948562 0.60280436 -0.8921135 -0.7104065 -0.4389947 0.4193763 0.70971113 -0.057572264 0.751398 0.16312961 -0.062362824 0.036446378 0.30986527 0.27936864 1.0412108 -0.49464267 0.8601653 -0.2673046 1.0806051 0.08135155 0.3537917 0.7217892 -0.2828495 -0.3862603 0.5280225 0.056185886 -0.4089735 -0.53072923 -0.03652239 -0.4672124 -0.19680014 0.11812359 -0.39094874 -0.38109243 1.111748 0.001589482 0.00978292 -0.056726586 0.4173609 -0.5391185 -0.1592975 0.17640811 0.5333479 0.15992789 -0.21782619 0.393988 -0.11054914 -0.29956093 -0.5171965 0.32607073 0.2530284 -0.06173382 -0.7198456 -0.26114532 -1.392361 -0.7224718 -0.32782638 -0.5816396 0.3777217 -0.18700601 -0.40490127 -0.35165235 -0.38261065 0.051725827 -0.25291175 0.10300325 -0.08949259 0.23839186 -0.3650996 -0.5396526 -0.020670302 0.4961253 -0.87636393 -0.50597066 0.18953438 0.72822624 -0.06215855 -0.4129402 0.0039045352 0.17727211 0.07271032 0.1720161 0.47095996 -0.38322875
i88 -0.2663073 0.13514274 -0.25640857 -0.6724618 0.6275258 -0.41594595 -0.13055123 0.32915872 0.3811066 -0.035077542 -0.03351003 -0.5217791 0.609619 0.41940793 0.6310514 -0.7876936 -0.90318465 -0.56889623 0.17611617 -0.3362582 0.057581265 0.33174792 0.7192311 0.012797805 0.7160281 -0.20110022 0.9506591 0.6253524 0.29000136 0.081315115 0.7375334 -0.6934835 0.12740842 -0.38752523 0.08221538 0.5304332 0.07826775 -0.3343524 -0.14278439 -0.56623906 -0.4129882 -0.59454536 -1.0492383 -0.16341242 0.16810924 0.3503516 0.075849935 0.47221327 0.0891515 -1.0553014 0.90921986 0.17233256 -0.08204813 -0.8488404 0.5990267 -0.13178913 -0.44880977 -0.21483542 0.036725633 -0.24340045 0.03007941 0.63074946 -0.2190192 0.22661391 -0.7250963 -0.40151095 0.18153125 0.43249607 -0.7431585 0.046360426 -0.20872869 0.11704667 0.088049345 0.37070414 0.38488674 -0.28465065 -0.2641348 -0.011723777 0.046316817 -0.54457295 -0.09585674 -0.06652862 -0.034865636 -0.6923307 0.18543859 -0.58094466 0.38670704 0.59238565 -0.05416261 -0.96149045 0.5751836 0.116075635 -0.41335046 0.040404104 0.6607686 -0.5137815 0.27058166 -0.34421647 -0.37246674 -0.09165178
i182 -0.74813503 -0.2756698 -0.24033083 -0.41511586 0.4094716 -0.5812959 -0.4288113 -0.1840144 0.48557645 -0.3781547 -0.8736123 -0.109330714 0.2351145 -0.3061335 0.963594 -0.69031197 -0.64850837 -0.514853 -0.07973712 0.8275679 0.6167062 0.6020042 0.11238121 -0.0835996 0.34891078 -0.4984743 0.8503241 0.22091782 0.07095769 -0.24902713 0.80815786 -0.7810986 -0.2697878 -0.06797598 0.62935597 -0.42098063 -0.95118845 0.10175329 -0.40351862 -0.62467533 0.2798749 -0.4240703 -0.20574908 -0.35731488 0.4240841 0.10215991 -0.11021722 0.08080833 0.2631123 -0.592879 0.25155124 -0.43208697 0.6456078 -0.15930432 -0.12171123 -0.8257253 -0.918573 0.41619012 -0.32843223 0.07139311 -0.1646855 0.23517454 0.4013174 0.30299622 -0.833195 0.3892391 -0.06622318 -0.31423113 -0.34232768 -0.29541013 -0.1426524 0.10784876 0.52989256 -0.33145413 0.010045784 -0.6319571 -0.9953269 0.013169212 0.34175727 -0.12251634 0.017557234 -0.42992532 -0.35390845 -0.9193802 0.3262294 -0.08714287 -0.16599247 0.38636923 -0.9954889 0.14662164 0.3686935 0.5683404 -0.18301788 -0.55509084 0.4884796 0.41130581 0.46253267 -0.37027803 0.18979846 -0.76387095
i60 -0.5419238 -0.4186318 -0.3357031 -0.39578056 0.521145 0.0024545903 -0.5460674 0.3175587 0.19562213 -0.4412006 0.39253843 -0.1716446 0.54009503 0.61379045 0.9001136 -1.1786375 -0.47660917 0.52676326 -0.24267119 0.6077703 0.035254877 0.63803196 0.5145442 -0.1082086 0.27694744 -0.4664198 0.28424275 -0.0863407 -0.04135534 0.109070376 0.6761905 0.35659513 -0.17979613 -0.72467095 0.7953979 0.15254886 -0.3790958 -0.71143204 0.30701765 -0.45638973 0.07449948 -1.2726521 -0.03424749 -0.46612725 0.20763905 0.71982396 -0.104010165 0.3091172 -0.027370034 -0.052797265 0.68299896 0.67355025 -0.16395882 -0.63592064 0.14375892 -0.13408506 0.022519588 0.68597215 0.7514621 0.2847088 0.06318635 0.06355816 -0.2105364 0.22428796 0.12862656 -0.29177085 -0.34102616 0.3815036 -0.68036 -0.59065163 -1.023725 0.38347575 0.36689752 -0.2615845 0.51777154 0.12345451 -0.059974533 -0.063658886 -0.582718 -0.0147820385 0.07617972 -0.85769385 0.08712463 0.15160629 0.13834666 0.0036236758 0.018889092 0.20594595 -0.043862913 0.1474489 -0.23769742 1.1696497 0.28221896 0.44116434 0.8168432 0.45479658 0.18987876 0.250305 0.11448981 0.14070794
i107 -1.1806318 -0.11444049 0.253733 -0.11124902 0.73870355 0.17393467 -0.48940086 0.040075243 0.11278865 -0.19420008 0.1982196 -0.37685755 -0.15792018 0.048767556 0.48927975 -0.2287637 -0.8721286 -0.24466261 -0.4917118 0.583935 -0.17214324 -0.16877875 0.03029659 -0.22430263 0.05430078 -0.3161961 0.08047641 -0.026588144 0.65161115 0.04018646 0.6141756 -0.12837696 -0.124627866 -0.46525913 0.62363744 0.60173357 -0.10263554 0.23298341 -0.1474148 -0.30742693 -0.23823708 -0.9072265 0.27768394 -0.44052383 0.1150778 0.4681718 0.038064703 0.18494275 -0.92530906 -0.14412299 0.2720246 -0.1983821 0.50521517 -0.21098123 0.20920819 -0.35319608 0.09771451 0.49293563 -0.67267257 0.27152404 0.546331 0.6766284 0.30591276 -0.22376095 -0.31131652 0.29561532 0.6106376 -0.26640642 -0.11480581 -0.11420598 -0.65177476 -0.30205193 0.092481524 -0.10124257 0.46190926 -0.19093023 -0.24373019 0.27118003 -0.18093157 0.39729157 -0.115746334 -0.5627734 0.04985022 0.51069015 0.26510456 0.3869043 0.31365523 -0.15387821 -0.5778402 0.109347984 0.50717187 0.09530029 -0.0819208 -0.5711243 0.61900896 0.12586513 0.34547758 -0.3116454 -0.58288234 -0.012167411
i78 -0.30597937 0.08222636 0.84871346 0.56801987 0.21551555 -0.834663 -0.15877773 0.037588753 -0.13328244 0.42527452 -0.40692708 -0.3425918 0.06528445 0.33457178 0.27590528 -0.6201265 -0.23454042 0.64668465 -0.38302198 -0.23247658 0.5080143 0.3350532 -0.08307919 0.236301 0.61064917 -0.65985334 0.06615708 -0.038238294 -0.15769917 -0.35975066 0.33443958 -0.5754831 0.15930402 -0.20717554 0.25644884 0.26034924 -0.2776039 0.0024557484 0.0026475294 -0.7331332 -0.07566088 -0.9485145 -0.32641816 0.26202077 0.08166375 0.22935191 0.11469157 -0.05087932 -0.097319685 -0.2600838 0.020286104 -0.3971043 0.10273685 -0.087414145 0.08508981 -0.4414736 -0.47683 0.0051434296 0.18684345 -0.17093472 0.0663607 0.45754877 -0.07015841 0.043509584 -0.3028762 0.5616073 0.11881071 -0.19130416 -0.73627186 -0.58414876 -0.70389384 -0.1478016 0.33720404 -0.22863618 -0.044819325 -0.04696761 -0.18648167 -0.66522914 -0.25370318 -0.013069328 0.5079917 -0.76606596 0.24447902 0.004463566 0.49934083 0.15627205 0.28506255 0.33102044 0.13421987 -0.16837367 -0.0135337645 0.32530248 -0.54991096 -0.95473623 -0.20746648 -0.19857955 0.84459794 -0.54328334 -0.25709945 0.02255109
i87 -0.9392875 -0.59439254 -0.015823564 -0.6110288 1.1511053 -0.5684913 -0.18332939 -0.1504428 -0.38278267 -0.66040367 -0.28662807 -0.46271908 0.40847468 -0.05491661 -0.01498816 -0.709508 -0.6975406 0.3696376 -0.19445622 0.5990117 -0.43070644 0.0608742 0.059029114 -0.05662911 0.7192242 -0.3092113 0.24578136 0.4256256 -0.19133711 0.13424267 -0.2458734 0.2925439 0.38358396 0.015167173 0.9390148 0.6151499 -0.29783112 -0.29503244 -0.037019443 -0.7862041 -0.31699497 -0.48968717 0.11106712 -0.25818956 -0.23181833 0.2756719 0.08062565 0.09201809 0.18508916 -0.20059969 0.599715 -0.01621424 0.802788 -0.45126238 0.32806802 -0.4031354 -0.1431352 -0.12146927 0.036317173 1.0442896 -0.49553144 0.20745936 -0.30642477 0.18042299 0.018830823 0.19929707 -0.28890145 0.28935996 -0.19926904 -0.58948946 -0.063175455 -0.29936975 0.6349345 -0.44453898 -0.46316358 -0.17622532 -0.18911752 -0.2583371 0.26190022 0.050008275 0.081918165 0.058472447 -0.45453912 -0.31804562 -0.119385645 -0.34541842 0.06616807 -0.2863832 -0.13184431 -0.37550312 0.31584296 0.6853714 -0.72758573 -0.045313496 0.28181434 -0.2130905 0.4996709 0.1627851 -0.050616857 -0.17503776
i43 0.0147351315 0.2280065 0.35850883 0.08747934 0.28073254 -0.46731815 0.46410742 0.23200272 0.11453023 0.75085455 0.03176989 -0.15492837 -0.028368762 0.1272175 0.011986736 -0.6624415 -0.07315095 0.96878415 -0.47285524 0.3009833 0.38009733 -0.07760237 0.20976944 0.30870602 0.24159972 -0.3207196 -0.07067286 -0.1338401 -0.0063627763 -0.29640862 0.3752175 -0.51840764 -0.02933914 -0.4146783 0.50554866 -0.038693357 -0.09475169 -0.185793 -0.23200718 -0.66194695 -0.15374245 -0.82376295 -0.4431951 0.3902724 0.27846962 -0.010482202 0.10126585 -0.1352325 -0.025238322 -0.3081383 0.33557096 -0.25016075 0.28230643 0.28245407 0.04655455 -0.78116876 -0.6896383 0.21440971 0.4850682 0.07248798 0.48441586 0.71285075 0.089876525 -0.27877128 -0.5169105 0.8349062 0.1586195 0.013680954 -0.76099753 -0.33298787 -0.7510309 0.043515686 0.3042399 0.14640768 0.23270707 -0.32900077 -0.40600982 -0.35177615 -0.030815955 -0.018422546 0.32041967 -0.9091096 0.19597499 0.037190918 0.16002406 -0.011285022 0.2764833 0.23435238 0.04958519 0.1148408 0.18774736 0.5785822 -0.5046372 -0.8575951 0.2964141 -0.5471915 0.53203434 -0.017098414 0.19997594 0.27101606
i171 -0.22766058 0.6343899 0.33631456 0.16270901 1.0133457 -0.46286005 0.20045072 0.25750956 0.17043358 0.25321528 -0.22290723 -0.30916297 -0.23652042 -0.28513125 0.11585338 -0.5231975 -0.02628004 0.8751105 -0.48476633 0.5096813 0.18560247 0.5262869 0.23376374 -0.10227642 0.43444604 -0.08351711 0.13984798 -0.34084457 0.3293435 -0.33322018 0.54409575 -0.47987613 0.24772866 -0.34799758 0.66274023 -0.13817461 0.009659787 -0.32080403 -0.004548764 -0.40554777 -0.40087447 -0.15743972 -0.6842179 0.028663207 0.43383497 0.23736775 -0.16701157 -0.009212868 -0.17333718 -0.30490896 0.39065906 -0.42441767 0.4062325 0.17739439 0.23339312 -0.28162876 -0.61740524 0.5600455 0.7582443 0.25000256 0.19175206 0.35137108 0.33734563 -0.13103119 0.12510847 0.49519292 0.2502877 -0.03474024 0.07220878 -0.6767875 -0.27161947 0.05640015 -0.020389954 -0.09511191 -0.17934313 -0.43172845 -0.5399652 0.031884994 -0.2512629 -0.030007027 0.3337669 -0.33792254 0.53469723 -0.32853538 -0.10199862 -0.11149615 -0.12877315 0.3310257 0.13010585 0.08892964 0.064098 0.17573288 -0.43841863 -0.47853625 0.07587922 -0.28124824 0.36971763 0.30370384 0.30985874 0.1314532
i139 -1.1306345 0.41253963 0.26430303 0.16615711 0.36460808 0.54109865 -0.58993274 0.1446838 -0.043978922 -0.19252805 -0.15134004 0.009291421 0.2789084 -0.03515652 0.5253793 -0.7785208 -1.2318639 0.579387 -0.62461853 0.10541101 -0.15063539 0.11312333 -0.24278328 -0.073616564 -0.5327908 -0.23383 0.17882663 0.0819738 0.53329974 0.037540965 0.3147079 -0.23318003 -0.03388439 0.21482016 0.28619957 0.9339095 0.46470731 0.25931445 0.34972715 -0.09776525 0.100755684 -0.8987084 -0.53119045 -0.18744004 0.17377704 -0.07496004 0.24040684 0.09065796 -0.5317392 -0.016611207 0.3627067 -0.14980514 0.92115444 -0.70462924 0.6538461 -0.2553277 0.20851682 0.15881875 0.36358756 0.020526297 0.24145778 0.9922686 0.060721137 0.11767703 0.31950393 0.49666426 0.26648405 0.1043212 0.11010366 0.15713538 -0.13635696 -0.17481697 0.27269742 -0.41314575 0.6899331 -0.37161535 -0.45981377 -0.17305227 -0.40218425 -0.11298906 -0.37005448 -0.20958269 -0.096070975 -0.5075206 -0.30684984 0.0800925 0.14375535 -0.007708967 -0.19927134 0.3181558 0.9042336 0.40858468 -0.19824703 -0.40419522 0.372838 -0.13852304 0.047258444 -0.21029183 -0.54266936 0.039943807
i52 -0.57302094 0.48161116 0.103762366 -0.357086 0.8527007 -0.19097391 0.09536418 -0.0728488 0.26976857 0.3164592 -0.48627794 -0.77337265 0.2676143 0.61018324 0.18202126 -0.513298 -0.5654247 -0.39340535 0.34981874 0.061712407 -0.59567726 -0.111891106 0.31852445 0.13095185 -0.10077007 -0.7098475 0.37756166 0.24327934 -0.13291222 0.75828254 0.30410826 -0.5639278 -0.06562209 -0.06219293 0.88121665 0.24104849 -0.26119235 -0.18824437 0.20740527 -0.18414082 -0.31951788 -0.5274175 -0.3507667 -0.09069676 0.49565285 -0.3757628 -0.040202606 0.29229844 0.39747724 -0.43278044 0.85172933 0.58787036 0.14944838 -0.21016715 0.5718808 -0.9109977 -1.0730175 -0.062047556 0.38788912 -0.08320715 -0.13757887 -0.601007 0.0008312044 -0.6398876 -0.7262565 0.443417 0.5270706 0.2659325 -0.503786 -0.40245333 -0.11033689 0.67420757 0.04382239 -0.58158666 0.6026525 -0.61297226 0.07284768 0.07066916 0.40327683 -0.6038507 0.323884 0.23823482 -0.09417979 -0.34701857 0.02987352 -0.36452088 -0.13444176 0.24650279 -0.24104995 -0.20587333 1.0482805 0.45267826 -0.22310193 0.0992351 0.60904086 0.14690098 0.07779825 -0.33219475 -0.07927361 0.104424156
i44 -0.36470538 -0.18240888 0.56959003 -0.04806884 0.12386214 -0.5147884 -0.06363598 0.30500126 0.15774007 0.6552429 0.025141725 -0.33473298 0.23869124 0.32384002 0.33716518 -0.48162764 -0.117563546 0.5780161 -0.5146688 0.024884345 0.6420056 0.24315286 -0.03522971 0.17905924 0.75176257 -0.6057708 0.11083322 -0.091705844 -0.07667108 -0.5278088 0.43241268 -0.6124602 -0.119241126 -0.59817123 0.515658 0.18784657 -0.43037322 -0.024557073 -0.051639684 -0.55068314 -0.37941277 -1.0892994 -0.18601833 0.46110767 0.15846068 0.2075789 0.04601923 -0.11824808 -0.31404537 -0.4939182 0.018725965 -0.26134562 0.057892967 0.32954887 -0.28674552 -0.48388657 -0.45323786 -0.012152016 0.34896347 0.2933817 0.326261 0.25800616 -0.16333672 -0.14495924 -0.38571805 0.6915275 0.14047994 0.20284994 -0.685682 -0.40313235 -0.75650775 0.07179767 0.13707495 -0.058045737 0.22721748 0.016872391 -0.23517792 -0.40273425 0.11646407 -0.09944092 0.6172771 -0.7592839 0.05160098 -0.106351554 0.33433086 0.07628487 0.34064338 0.28118116 -0.013084552 0.05955277 -0.06601603 0.51129204 -0.32697013 -0.6927193 -0.16631784 -0.42499945 0.6486371 -0.38786936 -0.046920314 0.047171183
i120 -0.8356639 -0.09051891 -0.12643123 -0.040097065 1.0166526 -0.2957097 -0.037607636 0.20478834 -0.026229251 -0.49301338 0.0876132 -0.40393463 -0.24171612 -0.028567323 0.30513775 -0.65751094 -0.6920344 -0.30244362 -0.49656007 0.66762626 -0.11229407 0.19512078 -0.25550795 -0.37240985 0.19609042 -0.2186672 0.050755195 -0.18667202 0.8707675 -0.22795822 0.5808119 0.0476116 0.24187027 -0.59860355 0.31198436 0.9038903 -0.52293265 -0.052628785 -0.22097458 -0.37590918 -0.18681653 -0.88416535 -0.094960935 -0.5665417 0.3576367 0.23637673 0.43200907 0.7466559 -1.0140085 0.031807184 0.20666827 -0.5413448 0.3873211 -0.21032335 0.36987945 -0.5560485 0.36767042 0.25284111 -0.30279827 0.489082 0.23741284 0.53748167 0.34085637 -0.4094287 -0.41665795 0.4665545 0.7380871 -0.24914882 -0.13310388 -0.057549402 -0.99915385 -0.24253899 0.22489344 0.023302855 0.6568556 0.1556248 -0.446318 0.20158143 -0.45103002 0.523204 0.3498658 -0.2917505 -0.30139858 0.24717894 0.17135139 0.211753 0.26078984 -0.25932187 -0.6783979 0.056086935 0.088372186 0.2080472 0.046715777 -0.35813746 0.74434805 0.48712087 0.3248104 -0.32859573 -0.34690285 -0.24477269
i262 -1.126919 -0.38931465 1.0409552 0.07492375 0.69677484 -0.46099392 0.12060451 0.7172726 -0.10907556 -0.3712269 -0.073411435 -0.14850941 0.02415481 -0.27444118 0.2160462 -1.2714213 -0.9319516 0.07186314 0.24069563 0.23775959 0.7049325 -0.22801046 0.11198481 0.24035712 0.3645758 0.10117559 0.64383477 0.64871985 0.036349222 0.64288455 -0.124932885 0.33877638 0.7242781 0.20409685 -0.1630131 0.21656252 -0.2994414 0.106265455 -0.23001102 -0.9552762 0.5046575 -0.76189744 0.14281158 -0.6962186 0.12146174 -0.05747838 -0.16744827 0.46000934 -0.116872914 -0.61051726 0.4610338 0.041288 0.57054913 0.03977002 0.6443808 -0.4601065 -0.7482487 0.24294555 -0.02900036 -0.17400429 0.7697023 -0.4046842 0.2512347 -0.14661741 -0.6729185 0.70164424 -0.20892012 0.35210714 -0.53383857 0.337598 -1.1969385 -0.0032973443 0.16761027 -0.41152316 0.47223842 0.112651035 -0.053680368 0.11214375 0.47390953 -0.5590198 0.58721715 0.0071717952 0.44131124 -0.42270958 -0.0642251 -0.13797383 -0.54209876 0.5668809 -0.8714678 -0.1670429 0.5385113 0.04688802 0.07289142 0.13516255 0.48561865 -0.31615832 -0.018823672 -0.28136048 0.43230525 -0.16901161
i203 -1.0810819 -0.687737 -0.79727054 -0.2606161 0.6451372 -0.8452573 -0.08419667 0.22785082 0.48648444 -0.10010873 -0.18832757 -0.2003416 -0.53501 -0.4242972 0.93227565 -0.72185004 -0.66583055 -0.19220889 -0.8592567 -0.100894704 0.7825681 1.0030822 0.7432641 -0.65118515 0.6879271 -0.055862114 -0.018857129 0.48201033 -0.005898154 -0.2916481 0.15112539 -0.057028737 0.5234673 0.033487376 0.9602855 0.43462878 -0.046252627 -0.28609955 0.6032359 -0.84275883 -0.40738234 -0.80274886 -0.22584213 0.31624633 0.26964867 -0.5415915 -0.4920376 0.35601458 -0.26610678 -0.7335196 0.5969035 0.13474609 0.58141845 0.14825617 0.8015797 -1.0238042 -0.0005876316 0.21536219 -0.15229714 -0.063069 -0.06704343 -0.47117522 0.6527782 0.024686879 0.42901796 0.10414196 -0.09424394 0.69163567 -0.6442996 -0.30486196 -0.93330234 0.04706822 -0.14700511 0.028421752 0.16491552 -0.6980296 -0.5640145 -0.5896567 -0.5435234 -0.28112647 -0.33014795 -0.5496587 -0.3839865 -0.20095514 -0.43501663 0.39490145 0.045378134 0.49873468 -0.8364966 -0.31246525 0.6392823 0.38908896 -0.15244631 -0.66090655 -0.032787807 -0.22709505 0.660456 0.5904546 0.055818867 -1.0359775
i48 -0.7171483 0.093641505 0.05295067 -0.10136392 0.2582958 0.36994526 -0.4896983 -0.030450154 0.34260592 0.34892556 -0.30694953 -0.70099986 0.17961062 0.36012727 0.036416966 -1.0073152 -0.6425025 -0.30122998 0.19744404 -0.040887065 -0.44216815 0.18353806 0.17876591 0.5103447 -0.21126845 -0.48259166 0.52086633 0.2921953 0.09397296 0.18316431 0.41649327 -0.3384353 0.08070993 0.331809 0.7009626 0.4910005 -0.31101206 -0.5864583 0.36230838 -0.43308005 -0.17145285 -0.035990357 -0.35460863 -0.46249324 0.23452917 -0.39887443 0.15372652 0.3526203 0.59587574 -0.73708636 0.699059 0.3153468 0.009900006 -0.3641469 0.0074864198 -0.33257204 -0.6503145 -0.3270417 0.11282608 -0.2535306 -0.12868519 -0.21820645 0.12577905 -0.59754676 -0.109183565 0.8224381 0.27230197 0.7527754 -0.24465609 -0.54543036 -0.29080328 0.36169308 0.54365134 -0.4943445 0.4029297 -0.6624867 -0.25950435 -0.070515625 0.61270744 -0.3633928 0.716169 0.15618536 0.5761675 -0.34050372 -0.5586982 -0.2927864 0.054907415 0.487946 -0.3979594 -0.17993355 1.0980558 1.0555699 -0.5975449 -0.2571731 0.3893869 0.49734545 0.10228615 -0.17692503 -0.2391467 -0.092828736
i56 -1.3132007 -0.18712667 0.36105007 -0.44585946 -0.37000722 -0.08638552 -0.052805882 0.14875641 0.09914002 -0.2336234 -0.16533972 -0.47375634 0.2623829 -0.42551202 -0.13536005 -0.86171305 -0.7316828 0.74167395 -0.5877051 0.8466992 0.07908683 -0.08790683 0.57277083 0.60552216 -0.16466811 -0.5721267 0.5106996 -0.63259834 0.23615895 -0.17711036 0.14808741 0.43152976 0.47485414 -0.1919084 1.1846938 0.0966678 0.25730023 -0.13041312 -0.09150371 -0.83138543 -0.23692168 -0.4022907 -0.37186685 -0.4050971 0.22766009 0.090084225 0.13941175 -0.051756572 -0.39037725 -0.7036527 0.4096609 0.33084983 -0.33616877 0.23856845 1.1302392 -0.573043 -0.27343175 -0.21320374 -0.21434695 0.50394875 0.06562087 0.598977 -0.08923378 -0.36752072 -0.3397591 -0.50623274 0.22573707 0.112813264 -0.22537705 -0.072398014 -0.38236994 0.22102284 -0.35379317 -0.62032574 -0.11422554 -0.23551826 -0.398869 -0.6756049 0.14123984 -0.9820779 0.06960437 -0.21120697 0.2127925 -0.2178522 -0.0014351741 -0.48879033 0.25697738 0.5201251 -0.611672 0.32682595 -0.039375145 0.67740154 0.43162644 0.30049902 0.55635035 0.2690686 0.80108166 -0.3671395 -0.3773218 -0.046398044
i41 -0.23480508 -0.26929325 -0.47919554 -0.6386478 0.82607484 -0.07080961 0.24961713 0.12265734 -0.016338022 -0.17535876 0.19760968 -0.18097816 0.47796196 0.5782281 0.15729384 -0.558168 -0.5806713 -0.29109666 -0.0041779857 -0.411463 0.09162314 0.12445517 0.5250491 -0.18746471 0.0030552242 -0.2781698 0.5110553 0.40990412 0.23868033 0.26026216 0.47874284 -0.40085596 0.3157092 -0.40921947 0.9813405 0.17727241 -0.11454591 0.04269845 -0.08951713 -0.22210534 -0.021703519 -0.71474445 -0.54071385 -0.38950488 0.6661525 0.21788898 -0.2069875 0.46770713 0.06706785 -0.90804386 0.05910026 0.45400897 -0.17456514 -0.6489211 0.38668424 -0.66537213 -0.8744394 -0.21477397 0.029063664 0.11407223 -0.19875315 -0.13050939 0.43002307 -0.4407578 -0.4711722 -0.30410233 0.68899727 0.7590217 -0.04971888 -0.010249158 -0.25208366 0.16850679 -0.08546692 0.15351665 0.43077126 -0.08743207 -0.5912679 0.29790017 0.2448476 -0.72082686 0.25794938 0.29053593 0.56781906 -0.19293787 -0.20604663 -0.29978478 0.2641552 0.7344719 -0.046432108 -0.8379369 0.87559754 0.27560225 -0.36321506 -0.2612462 0.7138074 -0.19052286 0.07735019 -0.17211059 -0.4792742 0.1044044
i46 -0.61451006 0.014723347 0.29949042 -0.04413406 0.39064613 0.02799869 -0.27527872 -0.5128306 0.5079233 0.19274245 -0.29336223 -0.55985445 0.44029784 0.3425437 -0.048012458 -0.95575994 -0.57603246 -0.32631838 -0.07991384 0.25730923 -0.59738505 -0.09138068 0.31032717 0.0119181825 0.14795975 -0.27641374 0.55775994 0.2115757 -0.21990597 0.24477316 0.73572373 -0.29763258 0.17666358 0.38343623 1.0083209 0.045929644 -0.41567767 -0.49257004 0.31652567 -0.5293768 -0.015376839 -0.18949611 -0.08937104 -0.040590268 0.39083695 -0.35151133 -0.21318287 0.7133213 0.51338637 -0.7218049 0.55972505 0.263929 -0.11095207 -0.45894504 -0.11000744 -0.6537042 -0.4533042 -0.37048796 0.09304511 0.009236981 -0.25140116 -0.14189038 -0.07111713 -0.55457544 -0.08361429 0.3097326 0.6080157 1.1455475 0.17843351 -0.35972527 -0.2601544 0.37694523 0.522034 -0.4275631 0.08767454 -0.32515478 -0.6019682 -0.12110074 0.36320904 -0.3853188 0.8093255 0.09243338 0.6452834 -0.04020752 -0.39194518 -0.57208735 0.43374428 0.9986471 -0.41972715 -0.39118215 0.7736005 0.9130784 -0.28510863 -0.19555761 0.34598687 0.45856255 -0.091606 -0.05432785 -0.574731 0.077243686
i5 -0.22306466 0.21421827 0.6559081 -0.19166219 0.6033333 -0.18107764 0.30586955 0.250618 -0.16370876 0.32480907 0.2699766 -0.21675928 0.2522854 -0.05362686 0.07490652 -0.3519944 -0.26229343 1.0455183 -0.1642058 0.44195363 0.47289154 0.40297398 0.32847401 -0.00046787053 0.5659714 0.22382283 0.04620453 -0.32529017 -0.26925486 0.13583681 0.4397002 -0.40672448 0.13469936 -0.2419178 0.7622991 -0.14114103 -0.47362003 -0.033237435 -0.43500432 -0.40990743 -0.24106161 -0.7052325 -0.4037859 0.09749216 0.47356218 0.26402 -0.08896339 0.18436193 -0.5558385 -0.26015142 0.24532564 -0.22586389 0.31687447 0.05523941 -0.24370885 -0.81468534 -0.9030086 0.3388632 0.11112222 -0.09949227 0.1921982 0.5077413 0.4405197 -0.4242102 0.05982376 0.3004943 0.09022254 0.3360301 -0.68876445 -0.2091011 -0.58442473 -0.08897217 0.19243623 -0.36009744 0.44702744 -0.5199579 -0.41310418 0.022500277 0.3813604 0.1783223 0.09310987 -0.68537724 0.18813632 0.13055158 -0.14333445 -0.18516533 0.043339886 0.46467862 0.06773813 0.11561011 0.16881762 0.39184257 -0.39622208 -0.6563365 0.26517582 -0.44597596 0.60851514 0.20815876 0.5893505 0.5430232
i211 -0.18089746 -0.042114925 -0.24379171 -0.52339345 0.6780466 0.19461113 0.07330356 0.194913 0.059591237 0.14065284 0.08773959 -0.6322625 0.27481717 0.6496069 0.14884314 -0.52276343 -0.40386748 -0.47152448 0.25028554 -0.3316662 -0.1194157 0.14882973 0.47026995 0.20332828 -0.116674736 -0.5682153 0.49481347 0.30827352 0.28961343 0.35906062 0.38695526 -0.33993128 0.07786034 -0.054731105 1.010179 0.3075838 -0.037546407 -0.42017433 0.023136362 -0.28074208 -0.23685831 -0.39991945 -0.53945106 -0.3938692 0.63642275 0.04860558 0.08306191 0.26552132 0.265614 -0.8311188 0.29101092 0.5307465 -0.18307196 -0.42175204 0.39600646 -0.46093947 -0.9248969 -0.2800067 0.059000786 0.072876796 -0.07284368 -0.27764127 0.26615822 -0.6806804 -0.4188223 0.11439955 0.47377414 0.66508275 -0.31384906 -0.11041998 -0.2827657 0.43945804 -0.009820726 -0.15073752 0.6197384 -0.38297102 -0.16645712 0.33375627 0.39611894 -0.5210836 0.21670036 0.45537922 0.40906596 -0.50679976 -0.3005948 -0.2209218 -0.0050930358 0.48237076 -0.15798987 -0.6074063 0.939161 0.44865447 -0.55492544 -0.15396717 0.76317227 0.083005235 0.056685675 -0.2805235 -0.30188 -0.013213267
i53 -0.6722842 -0.22228639 -0.27955773 0.043932524 0.28782803 -0.42520744 -0.31110504 0.047923975 0.23650518 -0.3117587 -0.0580696 -0.39673948 0.5337161 0.6378436 0.8678113 -0.62403125 -0.113850005 0.5998823 -0.434006 0.41129375 0.019917073 0.37106514 0.63513273 -0.040114358 -0.27982947 -0.61980927 0.21154734 -0.17066765 -0.08087319 0.15674266 0.78564435 0.36287722 -0.29904565 -0.7936424 0.6634026 0.29527178 -0.07501938 -0.39888963 -0.096379794 -0.510272 0.057744075 -1.1911676 -0.45615217 -0.73530823 -0.43208256 0.54987997 -0.1400745 0.49811083 -0.06729141 -0.17884007 0.4856398 0.6834428 0.14785331 0.062913835 0.42346922 -0.27484047 -0.32109046 0.68419546 0.9802949 -0.022621153 0.101316206 0.08683788 -0.29425433 -0.08679074 0.08408876 -0.31051862 -0.3770757 -0.09204643 -0.50980306 -0.21545708 -0.3014311 0.2526151 0.35879865 -0.25374484 0.772559 -0.44384125 -0.054954458 -0.25048187 -0.35076413 0.1259435 -0.026077097 -0.62486047 0.22752419 0.3642169 -0.31851548 -0.21932986 -0.30273184 0.049627054 -0.6877298 0.0063786358 0.4621699 1.2480485 -0.043389525 0.58695173 0.22899504 0.7121234 0.10661766 -0.03537972 -0.3404773 0.16129589
i229 -1.1742676 0.033532675 0.29580864 -0.12703452 0.3511902 -0.4701602 -0.8812121 0.37036538 0.54192334 -0.7197708 0.13192776 -0.41432384 -0.09437083 0.3350207 -0.20705496 -1.0678583 -0.49131778 0.6153162 -0.8779133 -0.7111395 -0.43077388 0.4575636 0.6885935 -0.04114452 0.7400854 0.14313096 -0.043864563 0.032262683 0.3465354 0.27742982 1.0420569 -0.4950251 0.862557 -0.25972536 1.0876956 0.068329856 0.32460937 0.7023523 -0.2588319 -0.3902125 0.53404325 0.013523764 -0.42083025 -0.51692355 -0.024123093 -0.4778204 -0.17981997 0.10297777 -0.4026658 -0.35510895 1.1199508 -0.043056086 0.014128081 -0.048771493 0.41729033 -0.5739171 -0.19806188 0.19380216 0.5261166 0.1473374 -0.16668957 0.41016975 -0.118174195 -0.2797623 -0.5353342 0.37060556 0.25632796 -0.08098078 -0.70953643 -0.28736675 -1.4073983 -0.71707785 -0.3285639 -0.5873725 0.3594444 -0.17070444 -0.41404143 -0.35584897 -0.3543978 0.049396683 -0.22313035 0.113079466 -0.055085517 0.23725511 -0.36369094 -0.54129755 -0.036396824 0.5247266 -0.87391174 -0.510569 0.21650252 0.712602 -0.039560482 -0.41821274 0.0022147358 0.147018 0.06718961 0.1630549 0.47868434 -0.3737868
i164 -0.74915874 -0.31991047 -0.21617946 -0.033471227 0.43502194 -0.43537354 -0.24901491 0.1374412 0.28644451 -0.14099178 -0.07652533 -0.31740284 0.59340507 0.6839485 0.7968694 -0.749801 -0.21477391 0.77906424 -0.3654319 0.4563705 -0.09802339 0.38949743 0.56436175 -0.08341854 -0.23083244 -0.74826366 0.047046613 -0.0031161325 -0.0919254 0.14828208 0.8871149 0.3554191 -0.19488046 -0.76728415 0.9855486 0.32269108 -0.1221086 -0.6008451 -0.15425155 -0.4492925 0.14857356 -1.1934452 -0.30682102 -0.7414541 -0.15341254 0.81924295 0.003793368 0.53194314 -0.27592343 -0.111061074 0.4610737 0.72267145 0.15987249 -0.08817397 0.2249914 -0.20795259 -0.493304 0.71236324 1.0177228 -0.0029493307 -0.02417744 0.32254365 -0.41962403 -0.038160868 0.11543493 -0.38778397 -0.38726193 0.15075414 -0.7431925 -0.35395497 -0.4203649 0.13217932 0.35681474 -0.2560057 0.55037975 -0.35237703 -0.13163048 -0.18993361 -0.3183201 0.285784 0.086812444 -0.76813215 0.18027267 0.4526455 -0.1745726 -0.15794419 -0.29848713 0.029159838 -0.3953219 0.057219144 0.2953414 1.3563648 0.17144988 0.4556932 0.32963285 0.6865017 0.2574915 0.11062331 -0.14217341 0.2677018
i71 -1.1241226 0.25088316 -0.51000047 -0.5272513 0.88850105 -0.014849776 0.102183856 0.676559 -0.3097768 -0.5699744 -0.38161907 -1.0266418 -0.4953636 -0.19041109 0.05545441 -1.0242203 -1.1249558 0.16239557 -0.049607333 0.14678451 0.39971083 0.5982396 -0.046305444 -0.29782647 0.15742728 0.1628868 0.6180188 0.32529387 0.27939942 -0.30343077 0.60452473 -0.23146138 0.61474067 -0.69798535 0.5910513 -0.019393174 0.24490122 0.25740856 0.47228226 -0.35515958 -0.42131287 -0.23028818 -0.113104045 -1.0018575 0.061666362 0.17795394 -0.6662827 -0.042039055 -0.8119617 -0.71437615 0.05389969 -0.45060924 0.51642066 0.29017043 -0.087001264 -0.66125554 0.07494807 0.24496758 0.5615182 0.33369076 0.44182563 0.13717954 -0.27365837 0.6315269 -0.17870091 0.7075481 0.8820848 0.62350494 -0.11641537 -0.5912529 -0.99555844 0.13056791 -0.01994302 -0.5266226 0.4232085 -0.1502296 -0.024351988 0.16259795 -0.35771704 -0.28454065 -0.1557818 -0.21660477 0.5267177 -0.75032794 -0.790566 0.3609829 0.27534297 0.12731206 -0.7561519 -0.070819825 -0.26286715 0.27378157 -0.20710249 -0.11083998 0.2973921 0.40187863 0.31550664 0.47851443 -0.13530192 -0.3047112
i25 -1.0235816 -0.13926764 0.07095796 -0.1130141 0.70084476 -0.040467776 -0.5841271 -0.042478245 0.0469361 -0.09725341 0.11904317 -0.21695836 0.005854381 -0.077020004 0.589514 0.081358716 -0.7616497 -0.54548585 -0.32748806 0.6208602 -0.2356794 -0.35957047 0.22280784 -0.49688023 0.09921908 -0.14058673 0.13579935 0.07850071 0.72727704 0.12645662 0.9477153 0.1452181 -0.2756019 -0.35683098 0.7041117 0.50902814 -0.4024743 -0.17066589 -0.13847762 -0.39015755 -0.1469005 -0.8990669 0.18316188 -0.18738346 0.1616098 0.45576337 -0.13078353 0.35263452 -0.81979334 -0.35883835 0.2366123 0.10378241 0.28656664 -0.5429086 0.3782836 -0.3435788 -0.044384323 0.41616917 -0.59776753 0.16520907 0.64425904 0.5500757 0.42110914 -0.2723314 -0.32729903 0.166347 0.5708747 0.27996442 -0.23663159 0.27206773 -0.6977215 -0.18615578 0.13704379 8.985203e-05 0.41175064 -0.3161573 -0.22113466 0.20737137 -0.23476706 0.21820591 -0.026011245 -0.37542638 0.028828701 0.47893175 0.3119975 0.15767455 0.33502525 -0.23471878 -0.73981524 -0.009028884 0.28158596 -0.16438584 -0.2676302 -0.2978345 0.3304958 0.055790056 0.3240288 -0.2202918 -0.4901198 -0.03524328
i189 -0.35263473 -0.19933657 -0.0726085 0.2944107 -0.13344577 -0.4218705 0.21952114 0.11644331 -0.25999224 -0.18733646 -0.30690357 -0.30587876 0.17269138 -0.40537003 0.07577546 -1.1573951 -1.1057856 0.35311836 0.43916464 -0.16020973 0.28128862 0.5760419 -0.04620853 -0.052162748 0.29424182 0.56734496 0.41305202 0.56994534 -0.48168957 0.0741928 0.37179813 -0.30930567 0.14041466 -0.11442069 0.38745424 -0.21494347 -0.13872658 -0.073945835 0.13158885 -0.5687364 0.76886266 -1.2151675 -0.62986827 -0.23736225 0.034646552 -0.012074528 -0.22399896 0.3808493 -0.98906976 -0.64405525 0.49867848 0.09231961 -0.19092363 -0.43571728 1.2562613 -0.7119591 -1.0625874 -0.1480796 0.84579974 0.09518622 0.19225687 0.32767633 -0.21165429 -0.011896191 -0.36700162 0.23053248 0.62214625 0.94450194 -0.0255536 -0.62665594 -0.7794601 0.45175707 0.5555955 -0.28131926 0.6412762 -0.014302531 -0.65362453 -1.0654509 -0.52679706 -0.33478048 -0.064522095 -0.10972895 -0.099335745 -0.04423401 -0.28076524 -0.28719926 -0.26591334 0.32893762 -0.26858068 -0.22745696 -0.42958924 0.5549368 -0.46020326 0.6337255 0.53216743 0.35010588 0.6183036 -0.051856294 0.06324864 0.038496494
i58 -0.6902764 0.7166143 0.31072405 -0.83184636 0.4710192 -0.06444263 -0.43454215 -0.49575567 0.24297428 -0.13487037 -0.15651225 -0.549984 0.025438521 -0.43036854 0.338562 -0.6040319 -0.27223533 0.06644608 -0.63504726 -0.27842385 0.3839836 0.35161945 0.10707205 -0.10437642 0.0977195 -0.43743482 0.25627 0.58419687 -0.5474191 0.15643126 0.34466746 0.25114515 0.57987255 0.22721957 0.50669163 0.19990288 0.44929072 -0.26382765 -0.44396436 -0.057121843 0.6312575 -1.3421112 -0.29253834 -0.17811276 -0.019504428 0.19063798 0.29304454 1.1633337 -0.63147163 -0.33473384 0.5407584 0.15814687 0.2860171 -0.18977429 -0.1434936 -0.4941431 -0.38340056 0.22635546 0.44158953 -0.23983957 -0.5846702 -0.19287862 -0.63525957 -0.4549321 0.04265368 0.6532882 0.544666 0.43210384 -0.33017173 -0.27743655 -0.218101 -0.29214352 -0.31732088 -0.052659545 0.24666144 -0.1947923 0.17284448 -0.901353 -0.27592885 -0.029118346 0.39863548 -0.6049065 -0.6156238 -0.20677994 -0.25598994 -0.533951 0.35289523 0.23504622 -0.92589676 -0.59702015 0.46701983 0.57453364 -0.07438607 -0.49823081 0.32656437 0.2784365 0.6668069 0.19895372 -0.4691389 -0.13212463
i181 -1.3875865 -0.245776 0.3873927 -0.39125395 -0.25733835 -0.058681242 0.11061964 0.11311612 0.1393652 -0.15671434 -0.22694391 -0.39944342 0.17915343 -0.37650666 -0.08272144 -0.9906336 -0.73701626 0.79219913 -0.6606583 0.7187392 0.2038445 -0.14688863 0.5881749 0.5846625 -0.25610656 -0.650494 0.53402996 -0.5623335 0.111004986 -0.23957545 0.24635947 0.31063598 0.41806677 -0.0313885 1.1839217 0.12848198 0.20664167 -0.23267463 -0.008537662 -0.94590616 -0.17194931 -0.39690706 -0.3209764 -0.25893646 0.24997936 0.04597231 0.12793943 -0.033132955 -0.35431436 -0.7300236 0.37849587 0.40639186 -0.32464463 0.28094435 1.1047746 -0.54877543 -0.1451876 -0.20929185 -0.3499386 0.49239704 0.10940134 0.64002705 -0.10639226 -0.19276606 -0.3620082 -0.3849222 0.24891506 0.098656125 -0.24579573 -0.09997272 -0.40967607 0.2560614 -0.4390148 -0.4094127 -0.3204279 -0.16958104 -0.44177988 -0.43014714 0.02142234 -0.8973807 0.11166125 -0.081258915 0.16379336 -0.38934866 0.099333875 -0.54884905 0.32612962 0.48479983 -0.71823466 0.25375843 -0.07190077 0.709034 0.42518312 0.26445252 0.59177274 0.26371133 0.84658283 -0.3487524 -0.24457929 -0.10351792
i65 0.032483608 0.45432794 0.67597264 0.23897898 1.0917212 -0.5746252 0.2868882 -0.22971876 -0.06401034 0.44867182 -0.36232686 -0.46741632 0.13944855 0.106329106 0.34367186 -0.61637294 -0.15472089 1.0321159 -0.3406155 0.23303746 0.33509648 0.2452962 0.23447019 0.13496192 0.33819607 -0.03362523 -0.06286062 -0.13702324 -0.07558743 -0.11245943 0.5703813 -0.52013195 0.3791926 0.10516702 0.77020663 -0.20352644 -0.24605009 0.071435936 -0.478744 -0.62098646 -0.039704315 -0.31403333 -0.61748755 -0.022917299 -0.08841059 0.2907402 -0.14270414 -0.12779044 -0.23413827 0.09913655 0.26054794 -0.33282992 0.36480108 -0.16874427 0.28135872 -0.5196817 -0.6573371 0.51875126 0.45114306 -0.28023812 -0.11705524 0.67028576 0.47175124 -0.42018113 -0.088068664 0.6282243 0.17406835 0.16244859 -0.37818584 -0.3749773 -0.31805253 -0.0220352 0.38489458 -0.4523537 -0.18069652 -0.6473167 -0.16132598 -0.25141943 -0.2533862 0.053763255 0.14780508 -0.70035535 0.42441574 -0.04538956 0.3692177 -0.04681762 -0.064335875 0.594874 0.21818702 -0.13126735 0.3122376 0.24476565 -0.83544016 -0.4623175 0.4297099 -0.089286424 0.5352875 -0.2032194 0.19124445 0.09042184
i260 -0.6816346 0.5167241 -0.046356957 -0.26584196 0.8316593 0.120659016 0.29111645 0.61498165 0.27688545 -0.11174803 -0.39917722 -0.41899666 -0.22522473 -0.13916785 -0.076005146 -0.45825553 -0.22536834 0.10166305 -0.58246547 0.033025112 0.084037066 0.84679914 0.44593534 -0.04405523 -0.21040848 -0.054578766 0.65529 0.36058733 0.5533222 -0.33003345 0.49173257 -0.0453482 0.45754606 -0.74377733 0.66468924 0.19632727 0.16948354 -0.4594538 0.3357884 -0.6635934 -0.13428524 -0.39026242 -0.5317456 -0.4637157 0.47078714 0.3344035 -0.47795245 -0.22531736 -0.32596874 -0.46346638 0.25101608 -0.60848385 0.26552656 0.43716565 0.21390837 -0.18655431 -0.3016461 0.43318802 0.7801385 0.54247284 0.3877263 0.48618567 0.038885508 0.56965274 -0.32620892 0.61085415 0.46026793 0.077943936 0.093234524 -0.7787486 -0.5504483 -0.08941966 0.018023524 -0.15374584 -0.2542905 -0.58540934 -0.2749991 -0.06394248 -0.084377974 -0.30922607 0.19557697 -0.30584314 0.632121 -0.5775429 -0.5711778 -0.0037283138 -0.042479225 0.26637065 -0.33852607 0.019705098 -0.13502415 0.6023846 -0.3623511 0.24004838 -0.06973985 0.143353 0.004464254 0.4969716 0.27232653 -0.13662602
i77 -0.49660915 0.49628997 0.40333512 0.28845918 0.73285866 -0.13451618 0.40367118 0.29072028 0.24740909 0.44999033 -0.0035292506 -0.08634171 0.088364996 -0.322793 0.43568593 -0.40105614 0.14895923 0.44515336 -0.3075146 -0.033103824 0.25930363 0.9545608 -0.08340423 0.1748534 0.16642688 -0.5653758 0.46779025 -0.32767835 0.3940955 -0.3975139 0.36838388 -0.1034833 0.49360186 -0.5669605 0.6909524 -0.06327208 -0.18564838 -0.29105008 -0.23640016 -0.5290308 -0.24485897 -0.54556215 -0.6967459 -0.25885954 0.85002244 0.17855208 -0.028761905 0.08995613 -0.11582772 -0.18909976 0.24913324 -0.4631819 0.16049315 0.23459485 0.27521166 -0.33383352 -0.5533773 0.022332668 0.47142866 0.45973217 0.37839442 0.60631317 0.20851712 0.25127417 0.22442888 0.14463456 0.30540228 0.08213525 -0.058035742 -1.0037298 -0.657943 0.10923201 -0.033512704 -0.21708082 -0.2247486 -0.32182863 -0.5230544 -0.106259175 0.1726009 0.12239882 0.2990988 -0.56775755 0.997155 -0.13888182 -0.44484034 -0.11976739 0.0658176 0.387464 -0.056309666 -0.1295732 0.027374478 0.16484718 -0.45331007 -0.07552668 -0.29115632 -0.4904778 0.3646396 0.17330049 0.11772358 0.4210038
i93 -0.38698062 0.085310094 0.51120687 0.103884414 0.39415306 -0.29183054 0.3780117 0.6286588 0.17019305 0.507295 0.07855452 -0.023612304 0.1984594 -0.20590925 0.1747858 -0.20191893 -0.18562451 0.7346058 -0.40004578 0.24604282 0.35254228 0.44555873 0.29696402 0.2580566 0.50701696 -0.061710186 -0.050658245 -0.18259333 0.097166546 -0.3257331 0.45405683 -0.595327 -0.12518707 -0.5886084 0.9909016 0.06766535 -0.2807922 -0.19724776 -0.2620843 -0.6120502 -0.40356752 -0.84789747 -0.6423712 0.25377306 0.40918937 -0.12322224 -0.14616437 -0.21720138 -0.45207417 -0.31504047 0.39167038 -0.27372873 0.104955986 0.22397497 -0.33682755 -0.5166696 -0.68628436 0.23023991 0.35997534 0.017333545 0.326882 0.6550681 0.19480059 -0.2333341 -0.054225344 0.37366557 0.082195714 0.18127199 -0.5885313 -0.71987414 -0.7631807 0.10863337 -0.05401675 -0.05435383 0.24507424 -0.2752859 -0.46246272 -0.13768896 0.5191777 0.085420765 0.5221257 -0.65228486 0.43268335 -0.10265382 -0.19581445 -0.1061103 0.08519943 0.12483293 0.12017456 0.2687872 0.095457554 0.27687392 -0.19334328 -0.38902044 -0.13904835 -0.6122494 0.5989967 0.1359186 0.18451893 0.32410368
i72 -0.77977026 0.23821433 -0.08387394 -0.75879735 1.2626653 0.014710457 -0.05304243 0.34973967 -0.23736742 -0.72040004 -0.19110139 -0.09539372 -0.075824864 0.3584752 0.5019924 -0.5374306 -0.16637042 0.55687386 -0.32794872 0.094954364 -0.3594095 0.13296685 0.069957726 0.18422978 0.55879635 -0.19026388 0.62710875 -0.4393744 0.45746097 0.3627768 0.28068662 -0.46675774 -0.43852627 -0.22572446 1.4164606 -0.23883465 0.4071829 0.5490991 0.22135086 -0.6590533 -0.25549206 -0.80000883 -0.9813515 -0.60444754 0.8443079 -0.3405073 0.47828534 0.13227946 -0.39294794 -0.37625495 0.29258937 -0.7493331 0.20857763 -0.5604776 0.62791914 -0.49131036 -0.84232724 0.25307277 0.35213858 -0.42362213 0.14524749 0.9382783 -0.09883473 -0.6472887 -0.108064555 -0.23897523 0.78872055 0.762539 -0.3498084 0.41832477 -0.5829092 -0.052794848 -0.029691728 -0.6512429 0.69748276 0.34542945 0.2925173 0.20806214 0.319777 -0.26520312 -0.4373143 -0.18863638 -0.42423922 0.5493407 -0.41255894 -0.9032161 0.07278144 0.63514835 -1.0349983 -0.051857565 0.50128996 0.37072048 -0.44374076 0.3336184 -0.40479246 0.35055825 0.4666892 -0.111364074 -0.2468377 0.06409847
i86 -0.9335624 -0.45865747 -0.026702818 -0.54758084 1.266561 -0.56899583 -0.14371249 0.02131246 -0.42086282 -0.7392956 -0.1884361 -0.5453852 0.3735589 0.009370713 -0.16921437 -0.8227653 -0.50198776 0.3708681 -0.39029428 0.598311 -0.4410912 0.19463725 0.08256698 -0.14296946 0.691766 -0.30497107 0.12430531 0.42611992 -0.07216948 0.16597977 -0.31489974 0.58116525 0.33914554 -0.004395197 1.0525736 0.43541053 -0.068330176 -0.27199042 0.033033434 -0.8299946 -0.5608154 -0.6438079 -0.03182921 -0.24693814 -0.18383583 0.53411305 0.17112747 0.38285336 0.13743858 -0.45929277 0.5225977 0.17516139 0.83695036 -0.34637818 0.3015808 -0.16595483 -0.042197373 -0.174145 -0.063061126 1.074321 -0.59772396 0.31200737 -0.2353569 0.19020405 -0.038643245 0.41421452 -0.28421998 0.30329224 -0.44724637 -0.32540202 -0.20640358 -0.08104277 0.7748855 -0.7921069 -0.57697624 -0.32633415 -0.36180678 -0.3753281 0.2786898 0.21249367 0.40809286 -0.031488206 -0.42508352 -0.43712205 -0.04099462 -0.13180555 0.05787978 -0.35667205 -0.27414265 -0.52761567 0.3754206 0.75253505 -0.5763889 0.034526613 0.43738675 -0.33932653 0.81079453 0.055338662 -0.15411778 -0.021131197
i197 -1.0335019 -0.7705856 0.23893504 -0.6660682 1.103544 -0.529982 -0.24416615 -0.34429815 -0.34499362 -0.52249056 -0.11835374 -0.43537498 0.4142544 -0.13249904 0.19861527 -0.6802825 -0.85936546 0.59598166 0.024069978 0.60421455 -0.43755642 -0.060682833 0.294008 -0.06031203 0.5348202 -0.29138422 0.54840314 0.2199886 -0.22423327 -0.15530162 -0.08092399 0.2316738 0.63951296 -0.12511125 1.1994895 0.916953 -0.5102636 -0.43292132 0.040964708 -0.83858883 -0.08229108 -0.35689938 0.2628991 -0.4157245 -0.018197443 0.031986427 -0.011061106 -0.08634542 0.26687178 -0.01222271 0.7744283 -0.23799579 0.5908375 -0.65404195 0.4838544 -0.7554973 -0.21335426 0.041409995 0.40771973 0.91964775 -0.34855396 0.1954007 -0.4381424 0.08497928 0.04244193 0.10988397 -0.29172254 0.37405682 -0.066864185 -0.7879003 -0.2542265 -0.562617 0.3459814 -0.18182933 -0.055433948 -0.07440773 0.29637328 -0.053670466 0.1675384 -0.41973588 -0.25971696 -0.027768617 -0.5790035 -0.07577818 -0.22131449 -0.51123375 -0.020117732 0.03997579 0.18071103 -0.12248672 0.27880728 0.65016836 -0.9509299 -0.23216066 0.118391305 -0.07297202 0.34234905 0.19824627 0.025316527 -0.3081103
i2 -0.89973503 0.7718906 -0.22061703 0.0045477054 0.4661052 -0.26094902 -0.15371333 0.34804425 0.09584725 -0.62777597 0.19941166 -0.5244805 0.06499849 -0.4275728 0.46752486 0.009462613 -0.77011585 0.28570834 -0.4739023 0.16054185 0.4892544 0.4695601 -0.34693584 -0.15436228 -0.3352758 0.07045166 0.39343762 0.010590399 0.039064735 -0.23397173 0.042166024 -0.13770758 -0.32538688 0.33144367 0.38557598 0.5227219 0.18801273 -0.0945572 0.5769498 -0.30528983 -0.2751123 -0.72915435 -0.6000139 0.20360427 -0.04351566 -0.342432 0.29856205 -0.24009697 -0.4682518 -0.28899398 0.28334594 -0.42628625 0.9700011 -0.43898198 0.51913047 -1.083459 -0.15765533 -0.20849252 -0.33059925 0.48365888 0.25245613 0.878798 0.12517604 -0.1808195 -0.34142688 0.0130960625 0.566841 -0.123325944 0.32753074 0.09404811 -0.785914 0.6362024 -0.44801876 -0.26333618 0.092598036 -0.21842758 -0.038536124 -0.512439 0.14268133 -0.35147426 -0.29320815 -0.42940688 0.05690676 0.19961923 -0.06782959 -0.024812872 0.1699345 0.5294263 -0.629054 0.0072993753 0.68983936 0.2386882 -0.40363458 -0.2977841 0.1916776 -0.027088724 -0.034716655 -0.23655564 -0.64941263 -0.023678074
i33 -1.0563946 -0.34950605 0.90388036 -0.09478136 0.7738087 -0.4109327 0.2671396 0.5828324 -0.34391373 -0.3019268 0.16224869 0.03415039 -0.37966168 -0.29872793 0.1557518 -1.3866974 -0.83161443 0.09790997 0.014750059 0.31119514 0.55614644 -0.43005425 0.1581517 -0.01605491 0.42626452 0.28285956 0.45895365 0.7128677 -0.011577343 0.6658054 -0.31207135 0.084735245 0.6060451 0.15549292 0.004180192 0.057676192 -0.37406585 0.36269188 0.0012347113 -0.72541934 0.4268031 -1.085201 0.04764222 -0.75590044 0.063883275 0.07424383 -0.20028795 0.4227609 -0.18168074 -0.6735101 0.3238269 0.22456747 0.5255399 0.26465645 0.5941127 -0.49151185 -0.8669074 0.27189454 0.17405778 0.11879452 0.87005526 -0.16941345 0.28085813 -0.14048634 -0.70281506 0.70670235 -0.061939217 0.05751172 -0.74775946 -0.10402845 -0.9569477 -0.04742038 0.049303383 -0.30593485 0.091782846 0.0735877 0.08541781 -0.022876423 0.56916547 -0.433153 0.7176801 -0.23304416 0.49825343 -0.24029425 -0.14730167 0.11810752 -0.3982793 0.4772249 -0.6603777 -0.27907223 0.59795386 0.1795302 0.28343803 0.16568507 0.7648314 -0.31656542 -0.21853606 -0.22022359 0.15064238 -0.20533668
i247 -0.66602117 0.7148167 -0.13479799 -0.13669483 0.67590815 -0.21211869 0.1653133 0.67510957 0.57028943 -0.061274778 -0.27857396 -0.19374058 -0.4064603 0.25663534 0.010059254 -0.816106 0.058952004 0.28548953 -0.64836967 0.10734292 -0.0995467 0.8738229 0.5844826 -0.29071483 0.03690732 -0.16904962 0.7078345 0.062589906 0.43676782 0.009904051 0.5940645 -0.11256831 0.33484417 -0.5898058 0.758971 0.3364176 0.031705216 -0.48498055 0.42848498 -0.5140017 0.47113654 -0.7054269 -0.4052238 -0.05021785 0.731906 0.4442134 -0.3114153 -0.00095139066 -0.037383214 -0.23682372 0.49170178 -0.7725012 0.5196504 0.5892501 0.57614183 -0.070993066 -0.16552664 0.497666 0.64631087 0.43523914 0.24615882 0.48171067 0.23299137 0.70338506 0.07642512 0.44419464 0.18258539 0.1871159 0.22403203 -0.57815504 -0.47828943 -0.02994256 0.2032036 -0.26603964 -0.66957957 -0.39572388 -0.29218292 -0.5016623 -0.009773232 -0.27943644 0.031737804 -0.24555938 0.54729563 -0.59843296 -0.27338424 -0.06559859 0.059463263 0.3848955 -0.47568825 0.17247161 -0.10072444 0.8008198 -0.29083923 0.06136976 -0.0142516205 0.010153269 0.2501927 0.6151087 0.3361739 -0.036968898
i114 -0.6823398 0.8669724 -0.30353814 0.003014963 0.8086572 -0.5950255 -0.64230084 0.40993413 -0.22744726 -0.5702482 0.30551374 -0.29270786 0.29252398 -0.06797776 0.53474027 -0.24342225 -1.029398 0.1667032 -0.6107398 0.23496182 0.59879756 0.33776575 -0.4438571 -0.2112355 -0.57787 -0.07048814 0.46106687 0.16606598 -0.23550388 0.3343439 0.19198282 -0.14241272 -0.27571043 0.09235975 0.14712611 0.2575131 0.15216874 0.2562652 0.69227 -0.16802438 0.40923005 -1.0724161 -0.72456926 0.109362945 -0.021604633 -0.35877195 0.4428738 0.011604726 -0.031846996 -0.026311811 0.6320737 -0.17303838 0.6757165 0.10620269 0.5572553 -0.9851185 -0.096539274 -0.30956766 0.035329074 0.27266806 0.30475575 0.6395405 -0.18346326 -0.26311976 -0.052688457 0.03472223 0.60393 -0.15108116 0.62470466 -0.10487059 -0.45717078 0.4462638 -0.21530347 -0.37523115 -0.14086765 -0.2782835 -0.31187275 -0.8339845 -0.025961885 -0.27263933 -0.19468531 -0.17010596 0.6117188 -0.40495533 -0.20133276 -0.30108002 0.015564548 0.6227626 -0.7048795 -0.14523084 0.6855942 0.70982176 -0.36738566 0.065783426 0.15771571 -0.27339807 -0.07583898 -0.4328837 -0.71324354 -0.22647788
i97 0.0017437872 0.58894295 -0.15227441 -0.40479544 0.115316115 -0.27014622 -0.3605925 0.4840703 0.0025023492 -0.7031383 0.4049022 -0.6603852 0.36191964 0.077503875 0.2988611 -0.9459927 -0.41037527 -0.44844517 -0.36596859 -0.41652986 0.46003175 0.32767847 0.8016277 0.4684579 0.6615322 -0.25483733 0.245001 0.063266374 0.953905 0.24023728 0.08680448 -0.25706026 -0.5464721 0.14160016 0.40056872 0.40439132 -0.17028251 -0.075497255 0.12495375 -0.748534 -0.02829391 -0.53225136 -0.57659626 -0.15373312 0.6293344 0.6367447 -0.50091845 0.0965153 0.106474124 -0.33561957 0.1834458 0.3309175 -0.22854038 -0.5941134 0.57769704 -0.15088165 -0.4571875 -0.008982901 0.18164629 0.09210479 -0.12944628 -0.0575423 0.026627624 -0.41231713 -0.75395745 0.26068965 0.6353596 0.43390873 -0.07138583 0.29759768 -0.33214188 0.11744506 0.49537417 -0.14196976 0.10057242 0.035639357 -0.29957902 -0.14472447 0.4501406 -0.5150939 0.45246658 -0.33262667 0.14447385 -0.26180694 -0.12756406 -0.41106582 -0.03693563 0.40837216 -0.24250664 -0.6174164 0.44194716 0.15226221 -0.55364215 -0.13506833 0.9326392 -0.012726771 0.47286707 -0.22952247 -0.8372592 -0.35367906
i259 -0.4592713 0.698915 0.494416 0.046025477 0.5281658 -0.4752673 0.32455188 0.21028504 0.1799934 0.3879803 0.026581751 -0.18887141 -0.013593431 -0.15240492 0.18929933 -0.6293717 -0.1260214 0.9066467 0.011239439 0.32517567 0.24230199 0.58926773 0.15034226 0.46872875 0.15314893 -0.14316988 0.33137754 -0.36451808 -0.042215914 -0.039192166 0.19538173 -0.4521401 0.14715761 -0.23182292 0.46133316 -0.11388081 -0.08215655 -0.50282705 -0.057008907 -0.5074209 -0.2371861 -0.69711983 -0.52484924 0.23141062 0.6636752 0.070925646 0.27528432 0.40701857 0.34228233 -0.24584976 0.46509758 -0.66432536 0.38702685 0.40940368 0.1636584 -0.76302934 -0.7633152 0.4117391 0.28797367 0.18372491 0.39051563 0.5993409 0.24152225 -0.15057291 0.13038051 0.65235 0.22762942 -0.1076029 -0.41473362 -0.50585866 -0.94508016 -0.020850804 0.33248925 -0.00223464 0.21499905 -0.3323176 -0.67177 -0.12254528 -0.055753022 -0.32665226 0.18173438 -0.760453 0.61601895 -0.06555442 -0.11428592 0.07665627 -0.06605453 0.36042273 -0.04589112 -0.10699238 0.09355587 0.3411169 -0.39412403 -0.98208034 0.0407289 -0.7264372 0.3745198 0.32441822 0.4412445 0.47577116
i91 -1.2469522 0.6494077 0.4068403 -0.23657715 0.9302491 -0.59451467 -0.3818662 -0.25865543 0.3019653 0.0698048 -0.39840868 -0.6504996 0.9644729 0.42280042 0.3070468 -0.09396087 -0.8327382 -0.1314154 0.030374387 0.07060403 -0.14134069 0.76993585 0.09828439 0.18354835 -0.14614075 -0.49940833 -0.32205722 0.19527762 0.29657793 -0.12950681 0.26365808 -0.24040188 0.44465888 -0.4050745 0.54785186 -0.23923314 -0.4672717 -0.48019075 -0.63192403 -1.2187097 0.16129613 -0.5023969 -0.62667114 -0.33022806 0.29387483 0.10642329 -0.05151285 0.28078422 -0.27693632 -0.68497276 0.7281532 -0.23563346 0.34286025 -0.01609959 0.5055083 -0.6709389 -0.1359694 -0.45051318 0.62110645 -0.08644525 0.6687244 -0.3663468 -0.5796559 -0.2136983 0.19735998 0.9236664 0.7410553 -0.20589522 -0.81825036 0.51472676 -0.8270008 -0.07967855 0.26659995 0.069491535 0.9543289 0.3161008 -0.39293218 0.21337554 -0.45855552 0.034078483 0.21214467 -0.21638492 0.3479525 0.028504087 0.13713403 0.35971168 -0.20312442 0.9384239 -0.28864506 -0.6358486 -0.09750342 1.1155674 0.4010617 0.07769838 0.013488688 0.23729166 0.22132115 0.25275514 0.23351532 0.1818089
i49 -0.79766744 -0.11519508 0.384211 -0.07485273 0.12526187 0.21637423 -0.46888053 -0.21312305 0.54846203 0.4181179 -0.2183664 -0.47672814 0.3786911 0.38750318 0.24171926 -0.6464503 -0.30229318 -0.5712762 0.09694154 0.18807615 -0.3724362 -0.25783673 0.095046245 -0.01279478 0.041605324 -0.58430165 0.71708035 0.2686992 0.06722251 -0.018786076 0.80543303 -0.09790024 -0.06361017 0.23685212 0.8154412 0.27924067 -0.57804775 -0.5862075 0.28140637 -0.37836346 -0.14259127 -0.40168563 0.11387398 0.042382203 0.24833837 -0.3269617 -0.18802151 0.38804105 0.38653988 -0.8894018 0.5503402 0.30095232 0.016448814 -0.27954677 0.16456965 -0.49836543 -0.31599483 -0.41422117 0.28416538 0.375388 0.040546417 -0.31014535 0.27809107 -0.64289355 -0.09433799 0.7519529 0.32900277 1.2811748 0.051250655 -0.31306985 -0.41527113 0.20075299 0.6637455 -0.49299684 0.08708929 -0.39874142 -0.44335455 -0.16257834 0.424262 -0.21655928 0.6850667 0.020702165 0.5884629 -0.2963331 -0.314333 -0.22428542 0.1337921 0.6982431 -0.55282503 -0.40315437 0.68953544 0.5596183 -0.4356794 -0.17000294 0.24552622 0.35975078 -0.015097823 -0.1672483 -0.6659655 -0.020510474
i140 -0.37372065 -0.29296333 0.6459656 0.051266443 0.38482374 -0.62025607 -0.098874144 0.22627154 0.11119989 0.649313 -0.2571809 -0.38787183 0.30856317 0.37668714 0.5551203 -0.39814076 -0.29457384 0.5036857 -0.52886087 -0.16874583 0.5723465 0.19661273 -0.061907902 0.20973249 0.7843726 -0.63396454 0.13329376 -0.17420706 0.02387084 -0.8336745 0.69956 -0.77499837 -0.088139795 -0.6831859 0.63149303 0.28099105 -0.53590035 0.11566071 0.013757266 -0.6288815 -0.33929428 -1.0997543 -0.21880156 0.46662703 0.06843777 0.32558697 -0.069389805 -0.29259628 -0.49428472 -0.5347659 0.050224215 -0.25869069 0.03141526 0.18088508 -0.048551142 -0.34999022 -0.2649325 0.02496262 0.52166533 0.23308176 0.1697852 0.22658262 -0.078378804 -0.05322664 -0.37166107 0.8003558 0.22962032 0.3889272 -0.4359868 -0.50326514 -0.7051377 0.021284608 0.41731724 -0.2800986 0.12378049 0.124909 -0.1684013 -0.55314326 0.107552186 0.0054265764 0.66594386 -0.73737764 0.09914748 -0.19643925 0.59997416 0.07150008 0.25155756 0.29693872 0.08967701 -0.06485293 -0.030101825 0.44769666 -0.45939863 -0.4890302 -0.2029031 -0.27733344 0.5440365 -0.49713823 -0.12101035 -0.0070973355
i57 -0.53660965 0.1877685 0.34033078 -0.78854 0.4355802 -0.008736816 -0.1730983 -0.33433363 -0.014352209 0.17196472 0.19723178 -0.4383066 0.13148633 0.17574345 -0.15479177 -0.44634956 -0.38845542 0.6944427 -0.3831681 -0.21747878 0.63516015 0.18861958 0.054399237 -0.31992015 0.50911826 -0.019857291 0.20661828 0.25792733 -0.6625118 0.2488921 0.25046676 -0.019631375 0.69802696 -0.23939165 0.21481359 -0.21448334 -0.13346787 0.2506119 -0.5547215 -0.36326697 0.51419634 -1.1774638 -0.31050476 -0.16331312 0.2483938 0.6583735 0.17307498 0.9628462 -0.5799716 -0.11651477 0.07408354 0.1033026 0.43043745 0.13838078 -0.15278453 -0.7745082 -0.78039455 0.19157068 0.012921426 -0.14413445 -0.109195195 0.3992681 -0.06175533 -0.15326579 0.030265193 0.4517485 0.39633477 0.76559085 -0.44677222 0.2930746 -0.4966062 -0.33334753 0.24432342 -0.25432885 0.37320772 -0.21861528 0.04147677 -0.714377 -0.020010965 0.20932248 0.03591884 -0.81579006 -0.30850458 0.013709439 -0.4234749 -0.40157253 0.6666472 0.647038 -0.39721695 -0.4908794 0.14501394 0.9874451 -0.37222886 -0.67423093 0.5941796 -0.06024023 0.42473468 0.3019186 0.4136195 0.38553497
i94 -0.33150217 -0.1024918 0.6672999 0.19762471 0.048096146 -0.71235985 0.05009924 0.5191209 -0.05587411 0.45074356 -0.096565895 -0.21857192 0.16757004 0.058164094 0.22032997 -0.38187945 -0.29385185 0.7541018 -0.5948089 0.22580554 0.4657659 0.15427192 0.12945741 0.26450023 0.59429383 -0.44014198 -0.076293364 -0.020569757 0.028639367 -0.5292243 0.41691247 -0.61953646 -0.22402492 -0.5686855 0.6941171 0.3519521 -0.34669533 -0.19624305 -0.060825646 -0.8045161 -0.39843962 -1.1490433 -0.3807611 0.36617732 0.17804262 -0.021161145 -0.10195369 -0.31936315 -0.40123937 -0.44451052 0.17634994 -0.32183674 0.003574507 0.13286947 -0.18901901 -0.62849706 -0.5842925 0.0335543 0.32054052 0.014588327 0.29422355 0.66439027 -0.15700431 -0.109834924 -0.42436445 0.663679 0.097117744 0.012973428 -0.89075077 -0.52495307 -0.8285009 -0.06002626 0.08387136 -0.026935136 0.27554905 -0.16272536 -0.29932758 -0.401875 0.14417225 -0.027310973 0.7058664 -0.85817146 0.14630681 -0.015531415 0.18990688 0.005237518 0.2979844 0.085506335 0.13752738 0.20490116 -0.038301267 0.32779008 -0.28714833 -0.85965264 -0.08568131 -0.44270468 0.90763307 -0.31214547 -0.27553755 0.053361785
i47 -0.4040279 0.31274515 0.18779075 -0.30523747 0.8216705 -0.4080869 0.08148683 -0.5024892 0.35531014 0.011305727 -0.5351966 -0.4941894 0.4933031 0.497512 -0.01472867 -0.6563749 -0.7018416 -0.26697487 0.11283959 0.36627647 -0.5685692 -0.2594019 0.37108254 -0.26774472 0.12410868 -0.36146033 0.22709267 0.18519105 -0.40525538 0.728107 0.6399253 -0.4649393 0.19301026 0.11920653 1.0198005 -0.075138465 -0.30723953 -0.03806908 0.23505554 -0.42858845 -0.019258939 -0.52250415 -0.16100644 0.1187206 0.61269855 -0.33643404 -0.3800205 0.717991 0.43708438 -0.3879557 0.6402624 0.5260128 -0.027697885 -0.40998966 0.33644584 -1.0661159 -0.7535272 -0.10809907 0.21385273 -0.13616008 -0.24973364 -0.35328516 -0.07158488 -0.46260142 -0.45930818 0.101113595 0.69756436 0.7150064 -0.07847331 -0.18705477 -0.029988784 0.5921654 0.09668704 -0.53478914 0.26731327 -0.17198704 -0.51268774 0.0840918 0.23902653 -0.6711714 0.5418808 0.21776916 0.15663888 0.04693305 0.04604237 -0.5893318 0.40272966 0.7839821 -0.28820065 -0.33394077 0.8761683 0.54310936 0.16229038 0.03646741 0.47063816 0.17150041 -0.09580489 -0.07525078 -0.40309438 0.27074805
i98 -0.3563607 0.7600102 0.20571756 0.10887137 0.1402515 -0.40489456 -0.41075134 0.60343623 -0.04042797 -0.7010338 0.35516655 -0.9105794 -0.074216194 -0.0052104187 0.11325324 -1.0097966 -0.5338302 -0.34978563 -0.668425 -0.31678432 0.43346158 0.19203691 0.37724876 0.54127467 0.6527309 -0.28388014 -0.31455067 -0.046616666 1.0517756 0.2986019 -0.055076115 -0.036168296 -0.5727855 -0.23699763 0.85523254 0.5545933 -0.19485506 0.19104093 0.08865397 -0.65968287 0.45537037 -0.8087928 -0.17238271 -0.3678711 0.5354533 0.7107786 -0.66179794 -0.007692139 -0.40088618 -0.0105043175 0.086139865 0.02524435 0.15146168 -0.104067616 0.29944822 -0.42515644 -0.33259004 0.3228621 0.04854487 0.16006006 0.029451527 0.21098566 -0.0096131 -0.45744842 -0.6659949 0.8122845 0.5093863 -0.10317207 0.15921831 0.10977437 -0.25429973 0.09661142 0.5564075 -0.6514023 0.27360088 0.5839615 -0.24836156 -0.40273756 0.43855408 -0.083405234 0.41462624 -0.51287425 -0.020310061 0.23975551 -0.061232854 -0.061652407 0.16641328 0.30508834 -0.3925155 -0.21044329 0.26074806 -0.040569272 -0.17347 -0.12988156 0.8622831 -0.0050066872 0.46975085 -0.4657587 -0.9110984 -0.40051112
i136 -1.1472088 0.616982 -0.2807978 0.28199527 0.7598856 -0.18415995 -0.48637533 0.37722605 -0.13126898 -0.41010895 -0.1110315 -0.7368521 0.3175549 -0.20441309 0.31121758 -0.38484094 -0.53246146 -0.14775282 -0.5010067 0.24373186 0.15823796 0.2703263 -0.24911642 -0.03615581 -0.34535816 0.25209782 0.584425 -0.22081031 0.0026268181 0.08016435 0.20998324 -0.37838608 0.013705158 -0.014766364 0.121023454 0.25139436 -0.35086784 0.36557385 0.6196216 -0.09981824 0.11486919 -0.78189075 -1.0612358 0.34630108 -0.03487968 -0.5860376 0.24047782 -0.26842248 -0.32670107 -0.23646194 0.29669535 -0.3129445 0.91985136 0.1387941 0.52871376 -0.92325 0.029120674 -0.3087407 -0.1104224 0.46942577 0.34724793 0.8804242 -0.041417997 -0.45060456 -0.1754698 -0.026838334 0.63636774 -0.09552796 0.0060250633 -0.022329414 -0.8278747 0.61667436 -0.4312669 -0.07255653 -0.53934467 0.3020917 -0.029735215 -1.018125 0.15337363 -0.27427745 0.09832939 -0.4618552 0.39305466 -0.039620355 0.43786958 0.098848954 -0.013475554 0.77639437 -0.8311796 -0.29842794 0.66841376 0.24977398 -0.35138175 0.107845515 0.49370837 0.009035948 0.25077426 -0.09033129 -0.36636668 -0.32324362
i38 -1.5179818 -0.04599364 0.096138544 -0.038400963 0.69994277 0.35298595 0.012520308 0.80300534 -0.018868037 -0.18049231 -0.5682514 -0.38477078 0.6415264 0.2332152 0.08312661 -0.16974032 -0.7390924 0.61731863 -0.24276316 -0.2854746 0.59806764 0.55741036 0.16295393 -0.061441924 0.8746002 -0.5560158 0.2760596 0.27123898 0.32828438 0.0661122 0.18309519 0.19473098 0.11169307 -0.38315982 0.8616985 0.4865469 0.19476154 -0.8822508 -0.17651884 -0.5770073 0.25709137 -0.76469827 0.24087869 -0.05098071 0.054858644 -0.5282959 0.1918798 0.4567362 -0.20072573 -1.0317328 0.56096596 -0.25492486 0.4319133 -0.4666156 -0.035531074 -0.39898783 -0.65503615 0.007092861 0.045363534 0.4855539 0.6671606 0.07202513 0.6525042 0.04269081 -0.5022739 -0.38429165 0.10099551 -0.37857193 0.2223594 -0.1434569 -0.5739191 0.15745477 0.34199607 -0.77153665 0.9553075 0.23154433 -0.71626884 -0.009335457 0.35433608 0.3709643 0.0472094 -0.32618135 -0.23834597 0.17506084 -0.051988788 -0.603473 0.55647236 0.14536026 -0.86981595 -0.44106817 0.68456894 0.9863654 -0.4512936 0.18914038 -0.39310318 0.59244627 0.4442196 -0.21446945 0.5411318 -0.093226574
i37 -1.5583458 -0.03436721 0.07233088 -0.050922036 0.69730943 0.39405963 0.011631353 0.78113025 0.029693529 -0.18474026 -0.60549647 -0.4033039 0.6444823 0.22371475 0.053650927 -0.16827913 -0.7406357 0.62343407 -0.25505766 -0.3007303 0.5885656 0.58541256 0.18254519 -0.04797023 0.8594284 -0.5497993 0.290051 0.2505519 0.31074193 0.043870345 0.20396648 0.188777 0.12701531 -0.39022273 0.89112747 0.46173123 0.2363529 -0.91265935 -0.19540967 -0.56471145 0.26847154 -0.73650724 0.25171253 -0.039930053 0.06947704 -0.5412922 0.19008231 0.4728482 -0.22549993 -1.0340855 0.57506704 -0.23706289 0.42545673 -0.46602398 -0.02939565 -0.3964009 -0.672758 0.029415188 0.0552029 0.47298703 0.6458144 0.113450095 0.6558371 0.016586998 -0.4751677 -0.42547208 0.110160895 -0.37627348 0.24954125 -0.14835061 -0.57830054 0.17462519 0.31509462 -0.77266186 0.9588705 0.24728033 -0.730223 0.00074927125 0.31795213 0.33916616 0.018168764 -0.3080082 -0.26204893 0.21008298 -0.11534346 -0.6144285 0.58867246 0.12844095 -0.8947207 -0.4356082 0.6959237 1.0191011 -0.43724278 0.189458 -0.42766237 0.623773 0.44077206 -0.1980812 0.5362966 -0.07702866
i166 -0.47436327 0.25071996 0.14987554 -0.65171766 0.5943829 0.25140142 0.2183817 -0.081314415 -0.3783677 0.14657897 0.24509896 -0.44462964 0.24291126 0.5321445 0.127584 -0.4596468 -0.28506753 0.8153733 -0.028854262 -0.13565722 0.59953254 0.67468476 0.17712924 -0.32971632 0.46804595 -0.0528429 0.5834756 -0.07078854 -0.31913292 0.39352557 0.57048035 0.19654769 0.59347415 -0.31667256 0.13127598 0.020251539 -0.55495197 0.24774414 -0.31352127 -0.37706193 0.101134054 -1.1030313 -0.05175917 -0.1984748 0.3518613 1.0137897 0.061231688 0.19869047 -0.6144184 -0.25322706 -0.25999624 -0.054424044 0.46679306 -0.06336988 -0.06978052 -1.0449648 -0.8439348 -0.104411125 -0.14971127 -0.26025423 0.040013917 0.29459533 0.33339188 0.377061 -0.16096814 0.30319476 0.4826426 0.42822334 -0.9049531 0.39529574 -0.45085976 -0.4514224 0.5541848 -0.60871345 0.22856627 -0.23921871 -0.23076457 -0.32240137 0.5074702 0.2812992 -0.34437898 -0.5794891 -0.18299319 0.47758618 -0.25752106 -0.22864859 0.51377785 1.0468593 -0.08777644 -0.19191457 0.30392578 0.8635508 -0.7335906 -0.6640246 0.4773334 -0.23247683 0.5754525 0.41240618 0.7734853 0.48535895
i108 -1.2228696 0.07250624 0.1996049 -0.1451873 0.6154972 0.3448846 -0.53491426 0.12667799 0.23345728 -0.18777438 0.18860699 -0.3871017 -0.06095716 0.10011448 0.5238645 -0.050677106 -0.81443137 -0.3027242 -0.4827797 0.48433757 -0.08656529 -0.19962871 0.08506977 -0.22903259 0.004950624 -0.32999852 0.17822172 0.102521785 0.62112427 0.066915385 0.574006 -0.14743109 -0.26288015 -0.429345 0.72533804 0.7075994 -0.07560198 0.23009796 -0.08346176 -0.36425695 -0.21173789 -0.9474147 0.33795795 -0.3803324 0.061802644 0.4367428 -0.10183752 0.025527932 -0.97994006 -0.29256505 0.44976166 -0.20347655 0.5718841 -0.2975316 0.2663585 -0.4769841 0.06569521 0.4140148 -0.7703843 0.29244652 0.623771 0.82828736 0.3495996 -0.18359992 -0.31746206 0.44076547 0.6645763 -0.19033708 -0.13298698 -0.18302788 -0.70648885 -0.2488858 0.04965337 -0.2623294 0.4463125 -0.2158778 -0.1926365 0.18917547 4.9357874e-05 0.45336854 -0.19785 -0.692236 0.16680469 0.5458427 0.27029026 0.55186504 0.35895988 0.021884155 -0.5356925 0.021002116 0.7933912 0.05363832 -0.10652085 -0.60376257 0.66946566 0.039413698 0.39644504 -0.33992222 -0.7115962 0.07969296
i116 -0.8767261 -0.17132404 0.69760823 -0.1780694 0.55030626 -0.633559 -0.721335 -0.08366776 0.5254298 0.04576249 0.6755088 -0.0047554947 -0.08249897 -0.09756073 0.5851843 -0.75457156 -1.0109463 0.29730776 -0.8078537 0.27138123 0.062277436 0.3706418 0.32567817 0.44447204 -0.08535457 -0.27433458 0.5638063 0.24907687 -0.2115133 -0.06595658 0.5414519 -0.094698116 -0.40999147 -0.28705436 0.2955023 0.27443558 -0.5593591 0.40002206 0.565109 -0.23938783 0.08494998 -0.6748247 0.22715129 -0.21027748 0.020040495 0.58827615 -0.32373908 0.4712813 -0.690786 -0.42634147 0.7695488 0.85616463 0.31284705 -0.10202384 1.2253321 -1.0434734 -0.28669578 -0.31932983 -0.10388665 -0.4908791 -0.33155707 0.14998485 0.07968468 -0.05949043 0.035508063 0.4908589 0.41475224 -0.13044026 0.2707378 -0.49769244 -1.1737101 -0.30069724 0.04091514 -0.049893238 -0.24701 -1.2005173 0.19627155 -0.20266385 -0.2664238 -0.77400863 0.70023674 -0.5985808 0.11306873 0.29570863 -0.3937894 0.6098811 0.12258442 0.10776873 0.36848837 -0.63677824 0.64047074 0.69930935 -0.22547835 0.18160537 0.3097598 -0.030451952 0.10837132 -0.094058245 -0.36682963 -0.6602452
i17 -0.80435306 0.22700538 -0.020680605 -0.15389495 0.029712196 0.41065782 -0.55318135 0.03571757 0.19894902 0.3984515 -0.47198653 -0.04558351 0.59488004 0.50923914 0.079808846 -0.72339517 -0.65470636 0.19775064 0.019860292 -0.11733176 -0.31276515 0.018908484 0.07369275 0.17103438 -0.2691607 -0.711885 0.72635704 0.58111525 0.22812393 0.09516155 0.364262 0.010502385 0.45042485 -0.09275824 0.100274146 1.0300716 -0.08403492 0.19485307 0.108027585 -0.29349908 0.11418181 -0.3998587 -0.22036722 -0.26625523 0.34986573 0.011215873 -0.1893376 0.15468533 -0.22008614 -0.22690675 0.7616177 -0.037803028 0.6249702 -0.5339733 0.74015707 -0.29501 0.1129383 -0.1147564 0.6383457 -0.13197362 0.029803894 0.52017516 0.36139497 -0.010686967 0.3013833 1.1115754 0.09441036 0.73954785 -0.70522326 -0.42319942 -0.347228 -0.23903999 0.32386643 -0.7874377 0.60936296 -0.5970413 -0.47508207 0.066034675 0.027685618 -0.24815337 -0.0027253805 0.09526004 0.2554553 -0.69130504 -0.38641876 0.040072262 0.021731475 0.35790706 -0.09034607 0.13392545 1.2278425 0.47843778 -0.12026864 -0.14252017 0.5826761 0.035059664 0.15253158 -0.29176027 -0.32561016 0.28944227
i187 -0.70527595 0.20564282 0.056794297 -0.20722213 0.16831785 0.43175623 -0.46308717 0.07159799 0.39455256 0.48489037 -0.39070192 -0.40812188 0.41265783 0.48367143 0.24087732 -0.5260162 -0.49559194 -0.50728524 0.35105562 -0.028601443 -0.53087217 -0.07166114 0.21352871 0.14123306 -0.23648126 -0.7111701 0.6554924 0.560699 0.32247353 0.2307235 0.56437486 -0.1280683 -0.00023199222 0.03531344 0.34471306 0.8266249 -0.26755884 -0.43488955 0.1703732 -0.24300416 -0.2771929 -0.29395717 -0.24986415 -0.23511747 0.30981028 -0.29314002 -0.03199374 0.31131 0.19198696 -0.5833257 0.8557051 0.25506395 0.21640493 -0.49330914 0.52127063 -0.29646912 -0.31324917 -0.23126294 0.29282144 -0.054560576 0.12560196 -0.023669688 0.37388453 -0.4307199 -0.16115049 0.9202637 0.19186802 0.73197204 -0.6350669 -0.33299214 -0.30402952 0.13488607 0.3707926 -0.52890134 0.5841625 -0.7708853 -0.23861934 0.14997815 0.3123405 -0.28049132 0.2638633 0.2698827 0.21676773 -0.66355443 -0.35641792 -0.1181072 -0.065653935 0.22745098 -0.30158553 -0.088155076 1.048088 0.36293152 -0.3251706 -0.0692346 0.49169847 0.2031425 0.16572021 -0.29454437 -0.45949626 0.011006129
i149 -0.8755244 0.44284075 0.5798121 -0.48988402 0.5567617 -0.04242399 -0.24130403 0.70569515 0.42757925 -0.28433317 0.5601569 -0.8334239 0.22513604 0.21231185 0.5893786 -0.48095068 -0.6110038 0.5586524 0.4915813 0.13635145 0.36096227 0.5463321 0.58116084 -0.054784663 -0.06693128 0.3187665 0.4139364 0.28897676 -0.32231775 -0.11375536 -0.019915193 -0.32170936 -0.14070213 -0.42248806 0.47314438 0.17346631 -0.21418615 -0.008722564 0.10165868 -1.4091597 0.112902686 -1.1196504 -0.14450869 -0.9836172 0.185584 -0.37711677 -0.5966692 1.1418431 -0.25875482 -0.85049164 0.9828914 0.001750222 0.87688017 0.30188948 0.85790354 -0.3497152 -0.72765636 0.03335152 1.1323472 0.17650972 0.14175425 0.617738 0.3275524 -0.12105109 -1.2672158 -0.1665827 -0.13399293 -0.24821696 0.25651562 0.14406271 0.002564171 0.09305093 -0.055091046 -0.33962822 0.080587454 -0.33120245 -0.7918146 0.41204786 0.33001494 -0.35362184 0.23043677 -0.80594814 -0.2461881 -0.25086078 0.34028894 0.35245138 0.7023773 0.06038716 -0.30882922 0.109286934 0.22738637 0.22223985 0.025526252 0.08832641 0.29165873 -0.10898343 0.26456234 -0.47780326 -0.3689855 0.35861778
i160 -0.8663968 -0.573536 0.44518453 -0.7143634 0.49397656 -0.51256573 -0.78959167 0.58535427 0.32822582 -0.006336867 -0.5786124 -0.66011417 0.2370851 0.6279019 0.767254 -0.40384644 -0.27176347 -0.29388356 0.28744426 -0.48356196 0.84700894 0.80104464 -0.7091548 0.49902964 -0.15378498 -0.32485497 0.2060749 -0.30547437 0.44089827 0.6874173 0.21001677 0.2264209 0.2402894 0.4381248 0.3826675 0.63543063 0.1776681 -0.14930294 0.4953302 -0.6440597 0.20576799 -1.2902061 -0.26839504 -0.19307987 0.1639424 0.53147936 -0.46458694 -0.09127322 -0.32115456 -0.4682038 1.0061933 -0.4078365 0.32380304 0.18211597 0.27871263 -1.0742954 -0.8034249 0.3000707 0.3895032 0.6011658 -0.14593863 0.20487168 0.20304243 0.3757873 0.027645094 0.3038267 0.73339444 -0.37474898 -0.16977546 -0.6508885 -1.2209088 0.5397218 0.6535039 -0.15978236 0.94318616 0.017430652 -0.22895637 0.15557884 0.2958376 0.41942063 0.26803514 -0.08402878 -0.3440825 -0.31079006 0.47615728 0.036933187 -0.0842763 0.89824253 -0.1927157 -0.016715692 0.81219906 0.5746638 0.07322169 0.1926685 0.2624426 0.3138903 -0.16938032 -0.62638736 -0.3032036 -0.22777024
i12 -0.7166326 -0.4289123 0.6634212 -0.35285053 0.3555056 -0.40904737 -0.18898624 0.1414012 0.30098405 0.9093938 -0.15863499 -0.2757728 0.46961477 0.56286526 0.51962864 -0.5503515 -0.39721996 0.18067831 -0.11734065 -0.27645096 0.4106962 -0.24383147 -0.0011486827 0.28463504 0.7512451 -0.7610947 0.32936442 -0.27067035 -0.096238926 -0.671975 0.5948398 -0.7150147 -0.08417142 -0.62175137 0.523629 -0.0052295895 -0.708969 0.34408283 0.025596758 -0.3882382 -0.0421962 -1.0021825 -0.027057845 0.44459754 0.16131319 0.34282315 0.072991565 -0.08465215 -0.36584818 -0.66599715 0.26419905 -0.14156508 0.2863053 0.21390824 0.26764315 -0.36556312 -0.18447083 0.040415987 0.53313655 0.53923684 0.13635735 -0.037215438 0.06363834 -0.18478882 -0.42670316 0.7330092 0.12381556 0.86613184 -0.19183806 -0.1800262 -0.613426 0.040804848 0.6953111 -0.44353056 0.067747034 0.28509933 0.005430284 -0.59407014 0.34625936 -0.031234981 0.5512198 -0.7107232 0.21436219 -0.30686772 0.7566944 -0.0426767 0.21583445 0.46310538 -0.31242257 -0.55367637 0.3486112 0.5332354 -0.3775762 -0.2693697 0.12452375 -0.26368323 0.14793274 -0.39581355 0.1942796 0.20990811
i106 -1.3697858 -0.060816824 -0.5849587 0.22509615 0.49259925 -0.2012188 -0.90457743 0.29002967 0.13783924 -0.3210247 -0.1495436 -0.9028531 -0.29679447 -0.5709502 -0.104410894 -0.22023924 -0.64944816 -0.15157099 -0.124816455 0.2880537 -0.14432892 0.7042627 0.48315233 0.4567989 0.06587283 -0.32613048 0.8842535 0.25732508 0.056396157 0.22154848 -0.07894717 0.022559933 0.0026063048 -0.04906335 1.0409418 0.6404668 -0.020270273 -0.07461789 0.8103931 -0.45960814 0.22510715 -1.2028588 -0.5222639 -0.033233445 0.053137507 -0.401839 0.6134193 -0.45829892 0.76294976 -0.43669644 0.46297908 0.049730435 -0.12089434 -0.058996852 0.4090096 -0.5449725 -0.73405296 0.08005861 0.35140494 -0.50313133 0.18041474 -0.052087076 0.23337105 0.4637797 -0.49500805 0.72838414 0.31375653 0.38359478 -0.9266742 0.14628768 -0.10319461 0.512948 -0.18653232 -0.3558298 0.45005476 0.29898214 -0.6487981 0.12860544 -0.32044256 -0.51384306 -0.23043536 -0.43078056 -0.3479414 -0.11587888 -0.01945215 0.27224386 0.18057497 0.23142418 -0.666092 -0.29366004 0.15876628 0.917203 -0.22317326 0.19838956 0.031157335 -0.6347544 0.4724485 -0.0988608 0.5675992 -0.17317386
i112 -1.418344 -0.14901192 0.31514838 -0.33044982 -0.22541873 0.026845397 0.13992475 0.19089879 0.21082766 -0.26570645 -0.2754065 -0.39464417 0.2794604 -0.37499383 -0.026207091 -0.97145665 -0.7054724 0.79918116 -0.6101661 0.7734895 0.14642324 -0.022587221 0.6039461 0.57212585 -0.31361708 -0.68523145 0.3938406 -0.5535913 0.11558221 -0.16610484 0.24008243 0.3553802 0.36202222 0.11292719 1.2340492 0.15540317 0.20617501 -0.3295347 0.047481593 -0.91715544 -0.3390582 -0.28901836 -0.4699137 -0.32899082 0.20793897 -0.016001297 0.18406117 -0.077911064 -0.38918325 -0.7430553 0.46440518 0.35082912 -0.29686278 0.18493569 1.0692756 -0.60231227 -0.14920814 -0.16857876 -0.36342186 0.509484 0.061431717 0.6485326 -0.019979058 -0.26330253 -0.2623881 -0.29169548 0.1565105 -0.07153343 -0.2754429 -0.19918373 -0.4464199 0.2278319 -0.44602355 -0.41165528 -0.31683287 -0.09588957 -0.49310362 -0.40879965 -0.08381302 -0.91055334 0.050006233 -0.16074412 0.151288 -0.32284084 0.2332523 -0.4984003 0.26431638 0.43365848 -0.6663013 0.22455978 -0.109002106 0.6642902 0.356393 0.34750926 0.50287557 0.25583833 0.89259565 -0.3527051 -0.23533669 -0.06569516
i20 -1.596734 0.0038431713 0.3092884 -0.3362392 0.15124345 -0.052753985 -0.079073906 0.4943423 -0.06103307 0.30904135 -0.51475704 -0.1796001 -0.9299462 0.3701338 -0.25351706 -1.4773039 -0.73954695 0.812636 -0.88342094 0.5419772 -0.19164328 -0.04528311 0.04542215 -0.044949375 0.36809736 -0.48713964 1.1035484 0.29294628 0.014051136 0.24897856 0.07182355 0.44869283 -0.21519884 -0.036943004 0.29145187 -0.27815342 0.6629104 -0.64359516 -0.019175904 -0.86478335 0.38641647 -1.1084505 -0.5700006 -0.13504846 0.42543238 0.5214376 0.09468399 0.18087073 -0.68916243 -0.5848658 0.47028074 -0.26212284 0.13197175 -0.22397693 0.5563374 -0.3870776 -0.17756759 0.5057552 0.06871761 -0.27017283 0.12005063 0.56256837 0.47203434 0.45273095 -0.39140612 0.80309844 0.34130606 -0.46916774 -0.61854374 -0.29817197 -0.6393622 0.19966434 0.3233675 -0.11286235 0.13557674 0.1842807 -0.46974808 -0.7721912 0.4482643 -0.42713153 -0.22944118 0.17444757 -0.8209089 -0.20476384 0.20264836 0.77428454 0.96553856 0.6516768 -0.38866147 0.21138957 0.35444322 1.0239197 -0.082364954 0.48764542 -0.040584028 0.35062397 0.3143067 0.42902637 0.05603541 0.47098663
i216 -0.5548558 0.9932166 0.2618981 0.5066867 0.9197027 -0.075622566 0.43609014 0.18890457 0.034535028 0.16537671 -0.25983256 -0.285918 -0.35643235 -0.11697186 0.7723332 -0.7815688 -0.1575549 -0.10871531 -0.032359283 0.06424218 0.19800065 1.0103986 -0.45516565 0.2645014 0.35750848 -0.528447 0.5095273 -0.3611769 0.5963104 -0.2723556 0.6393843 0.17870888 0.47276816 -0.44909915 0.80833656 0.061713766 0.011891768 -0.056066956 -0.38259274 -0.96188325 -0.30549437 -0.38665643 -0.75300765 -0.6315773 0.9539044 0.40298197 0.32901782 -0.20029399 0.15797465 -0.2723508 0.48102674 0.0037236656 0.23622951 -0.21743868 0.42914742 -0.8155877 -0.6439902 -0.204331 0.26507616 -0.38938802 -0.17517856 0.3090145 -0.3898022 0.16280016 0.02248887 0.038349155 0.516799 -0.21009241 -0.13215354 -1.0146042 -0.6554641 0.40522146 -0.23701435 -0.2744085 -0.17747939 0.071475126 -0.6064254 0.19220929 -0.2710216 0.38958412 -0.021631163 -0.38968217 1.07565 -0.17840865 -0.51703525 0.024587436 0.29106316 0.5619288 -0.12224956 -0.062132824 0.3630629 0.33454916 -0.65723044 -0.22885971 0.07583913 -0.33408833 0.65752035 -0.13299468 -0.43979383 0.041709818
i248 -0.65950024 0.64305395 -0.16643694 -0.09177677 0.78266895 -0.18497156 0.2269218 0.7717366 0.2906943 -0.12183797 -0.32013968 -0.53025347 -0.43976453 0.08054895 0.0034526344 -0.7322965 -0.19767922 0.19034484 -0.6259976 0.10490944 0.14714156 0.8141382 0.3812504 -0.3880099 0.06785844 -0.013845865 0.62830895 0.17018965 0.44964603 -0.13220727 0.66472405 -0.16404995 0.48973897 -0.67590666 0.66993237 0.20906939 0.10280338 -0.3194465 0.54421115 -0.34927624 0.14728488 -0.41648465 -0.3602246 -0.32196888 0.5977356 0.38895214 -0.4604185 -0.056729786 -0.32150316 -0.35861304 0.25504205 -0.7138586 0.49508107 0.52734995 0.30979228 -0.14443754 -0.1433565 0.53552884 0.7720214 0.37221754 0.34693125 0.38206184 0.15318498 0.65668 -0.031429846 0.49929538 0.4935828 0.26417443 0.1201983 -0.6847946 -0.59468013 -0.045672707 0.14566578 -0.28115317 -0.34659752 -0.44398415 -0.20045294 -0.22347508 -0.2127713 -0.23265773 -0.018766012 -0.26629418 0.65077525 -0.6982204 -0.37327468 0.12995392 0.14259447 0.2629621 -0.48978314 0.14807978 -0.24452893 0.3836165 -0.3143689 -0.008125196 -0.061216395 0.16826722 0.27334216 0.6137592 0.27652696 -0.054334246
i208 -1.3118217 0.026114406 0.68361944 0.12445593 0.552458 0.24923198 -0.01462152 0.34325722 -0.4052621 0.1646215 -0.35273257 -0.8826232 -0.44402665 -0.11468711 0.61025 -0.97689265 -0.38301784 -0.06826143 -0.16237849 -0.5096561 0.45974198 0.44656676 0.13220991 0.28081974 0.35736206 -0.341446 0.6958612 0.12229661 -0.20253173 0.48560792 0.24601263 -0.5944163 -0.32566857 -0.0016438162 0.28025678 0.63498074 -0.2946169 -0.45191273 0.37179384 -1.1365945 -0.4238874 -1.2392019 -0.5212559 0.32031393 0.46271607 0.0730372 0.6315925 0.18458414 0.017776918 -0.3079073 -0.012146308 0.39187956 0.5466445 -0.0725524 1.1725171 -0.20686 -0.12635621 0.3860142 0.23786207 0.102689914 0.50531673 -0.046277855 0.00893351 0.1847037 0.37082556 -0.38231954 0.4841411 0.46403798 -0.3654175 -0.31559038 -1.0466435 -0.6183909 -0.1718773 -0.107116945 -0.37450725 0.18297234 -1.1707231 0.18397355 0.5765935 -0.6472422 0.5448312 -0.13685176 -0.50547314 0.15320984 -0.23892355 -0.16777943 -0.027110783 -0.22995812 -1.0780116 -0.56625664 0.21569738 0.76057506 -0.052672148 -0.60626465 0.013374449 0.018411104 -0.2406539 0.31568542 -0.3178835 -0.29006225
i35 -1.0098225 -0.22537282 0.2552577 -0.45235288 0.7140097 -0.453203 -0.1650589 0.14067708 0.36031297 0.77041024 -0.23716642 -0.48109278 0.3120431 0.4283083 0.7756751 -0.8406318 -0.4538405 -0.041234907 -0.14744593 -0.019815873 0.26595327 -0.3117431 -0.24883564 0.2114482 0.5964993 -0.804115 0.6278012 -0.5577593 0.18804821 -0.8929568 0.6137209 -0.5773073 0.17029265 -0.6502463 0.48542875 -0.07550816 -0.58509904 0.46499982 0.21333212 -0.11621593 0.006226802 -0.86756027 -0.10213376 0.24873583 0.25639406 0.6332018 0.13423797 -0.15788133 -0.21606284 -0.5974691 0.4541602 -0.038941488 0.49456862 0.31479606 0.94970024 -0.19170742 0.23977527 0.09230891 0.68849546 0.8106034 -0.09372682 -0.25465035 -0.034182336 -0.23508704 -0.2931251 0.73046035 0.06845135 0.82489395 0.2909302 -0.17632963 -0.5589331 0.18237601 0.7810322 -0.5984286 0.12832028 0.6280523 -0.07725202 -0.45306048 0.15461761 -0.042859092 0.22459444 -0.46436065 0.11421159 -0.18891251 0.82796574 -0.13770188 0.14944 0.60891473 -0.3553864 -0.7099027 0.3732897 0.5838881 -0.24356402 0.1920243 0.22526559 -0.25134104 -0.058531374 -0.3769201 0.6166641 0.1110303
i8 -0.56149167 0.39059746 0.66213983 -0.41123897 0.6711777 -0.38819307 0.11238445 0.50819814 0.21804123 0.06552944 0.36191073 -0.4155162 -0.013595743 -0.040730868 0.11212679 -0.58683336 -0.14831905 0.83417076 -0.20052698 0.8493767 0.2872886 0.64990354 0.19145258 -0.092729256 0.63622624 0.1617384 0.23173976 -0.38539603 -0.014485849 0.024399076 0.4554248 -0.66756797 -0.23272276 -0.33362284 0.7220413 -0.12853749 -0.29820764 -0.46782005 -0.17197242 -0.46453306 -0.5249784 -0.6950069 -0.42996585 0.12064363 0.55193263 0.46689892 -0.09892932 0.2972518 -0.4874068 -0.6076503 0.3987313 -0.49585813 0.4469891 0.2591216 -0.58173937 -0.46788466 -0.70713013 0.3544696 0.094496414 0.34209296 0.099713504 0.17375277 0.14273277 -0.4649646 0.19278508 0.67206526 0.042227175 0.35065284 -0.6009458 -0.33411053 -0.61012095 -0.11401208 -0.13155763 -0.13301633 0.7093265 -0.19830008 -0.73318225 0.27975523 0.41424292 -0.16041972 0.118581556 -0.45072508 0.20342225 -0.028333573 -0.22056617 0.10325397 0.10019522 0.4444834 0.10887713 0.30255598 0.029085645 0.16976218 -0.19553843 -0.75312334 0.1485548 -0.8046005 0.64593536 0.1281032 0.52330655 0.37342867
i110 -1.0326574 -0.35445413 0.3661272 -0.30400044 0.7626512 -0.84429276 0.38271055 -0.5731788 -0.10175286 -0.27435338 0.68096906 -0.6189054 -0.08762535 0.5225014 -0.21069077 -0.19344418 -0.23933 0.52821964 0.050104883 0.45300928 -0.5918246 0.6437805 0.33673584 -0.615099 0.34324735 -0.84111935 1.4206042 0.2283785 -0.41339946 0.012386931 0.3334697 -0.23331496 0.6693881 -0.1260978 0.5616367 -0.1608367 -0.496015 -0.31030706 0.41062993 -0.8171249 -0.17128448 -0.9169442 0.26705265 -0.12536249 0.86162055 0.40480325 0.69678444 -0.036854193 -0.3915115 -0.6990788 0.6640506 -0.48510903 0.23416804 -0.6787928 0.52853286 -0.44408417 0.13644318 0.66342807 0.69227946 0.5496364 0.27152383 0.0151603175 0.21800445 0.050433904 0.3348872 -0.22331974 0.3829349 0.89193004 0.19465947 0.22722149 -0.9112657 -0.1263788 -0.28222552 -0.66029704 0.90592617 -0.32989016 0.14662674 -0.34659934 0.4715267 -0.21254846 -0.720131 -0.72470397 0.61079717 0.62319463 -0.3682655 0.018774604 0.3840815 0.62909883 -0.24493779 -0.94408697 -0.01740327 0.5632092 -0.5639601 -0.4265259 0.3327274 0.045461517 0.884023 -0.25145292 0.18982904 -0.20435159
i191 -0.31996888 -0.35024235 -0.17278615 -0.2772038 -0.16685963 -0.22291818 -0.3272769 0.31539172 0.3109282 -0.86667603 -0.63583493 -0.7216139 0.049573068 0.26797804 0.45661992 -0.3083113 -1.0154461 0.24750558 -0.081686206 0.45182046 -0.4297032 -0.10356905 0.325517 0.37944293 0.14196393 0.11797897 0.89173275 -0.017919507 0.6584466 0.45300984 0.17305401 0.21030016 0.7337005 -0.3192759 0.96374524 -0.030403197 -0.3040644 -1.0390143 -0.07511866 -0.2994131 -0.09866013 -0.9629541 -0.58909714 -0.74506295 0.40238333 -0.40924788 0.6000691 0.0041133184 -0.47114655 -0.2419604 0.85590225 0.02707486 -0.16123126 0.10439765 0.4221698 -0.9758225 -0.17546119 0.23977414 0.3856762 -0.68954575 -0.1761141 0.24491689 -0.21406154 0.08137014 0.20401683 1.1138648 0.16009453 0.5177368 0.49950743 0.0006740802 -1.3519776 -0.33933878 -0.060383767 -1.002882 0.43395835 0.08383994 -0.4123004 -0.32657588 0.30783087 0.5396963 0.51869994 -0.43554494 -0.14191532 -0.29042238 0.17639305 -0.35292795 0.0058788247 0.41021135 -0.47823402 -0.6559774 1.014628 0.54371965 -0.0076778177 -0.69896495 -0.42372257 0.2716045 -0.013593137 0.05305066 -0.1038087 -0.35952097
